=== Run information ===

Scheme:weka.classifiers.trees.J48 -C 0.25 -M 2
Relation:     portuguese
Instances:    533713
Attributes:   8
              prev3
              prev2
              prev1
              letter
              next1
              next2
              next3
              target
Test mode:10-fold cross-validation

=== Classifier model (full training set) ===

J48 pruned tree
------------------

prev1 = a
|   letter = a: 0 (19.0/4.0)
|   letter = b: 0 (664.0)
|   letter = c
|   |   next1 = a
|   |   |   next2 = a: 5 (0.0)
|   |   |   next2 = b: 0 (20.0)
|   |   |   next2 = c: 5 (0.0)
|   |   |   next2 = d
|   |   |   |   prev2 = a: 0 (0.0)
|   |   |   |   prev2 = b: 0 (0.0)
|   |   |   |   prev2 = c: 5 (7.0)
|   |   |   |   prev2 = d: 0 (0.0)
|   |   |   |   prev2 = e: 0 (0.0)
|   |   |   |   prev2 = f: 0 (0.0)
|   |   |   |   prev2 = g: 0 (0.0)
|   |   |   |   prev2 = h: 5 (1.0)
|   |   |   |   prev2 = i: 0 (0.0)
|   |   |   |   prev2 = j: 0 (0.0)
|   |   |   |   prev2 = k: 0 (0.0)
|   |   |   |   prev2 = l: 5 (1.0)
|   |   |   |   prev2 = m: 0 (0.0)
|   |   |   |   prev2 = n: 0 (0.0)
|   |   |   |   prev2 = o: 0 (0.0)
|   |   |   |   prev2 = p: 5 (1.0)
|   |   |   |   prev2 = q: 0 (0.0)
|   |   |   |   prev2 = r: 5 (3.0)
|   |   |   |   prev2 = s: 0 (0.0)
|   |   |   |   prev2 = t: 0 (7.0)
|   |   |   |   prev2 = u: 0 (0.0)
|   |   |   |   prev2 = v: 0 (0.0)
|   |   |   |   prev2 = w: 0 (0.0)
|   |   |   |   prev2 = x: 0 (0.0)
|   |   |   |   prev2 = y: 0 (0.0)
|   |   |   |   prev2 = z: 0 (0.0)
|   |   |   |   prev2 = 0: 0 (0.0)
|   |   |   |   prev2 = 1: 0 (0.0)
|   |   |   |   prev2 = 2: 0 (0.0)
|   |   |   |   prev2 = 3: 0 (0.0)
|   |   |   |   prev2 = 4: 0 (0.0)
|   |   |   |   prev2 = 5: 0 (0.0)
|   |   |   |   prev2 = 6: 0 (0.0)
|   |   |   |   prev2 = 7: 0 (0.0)
|   |   |   |   prev2 = 8: 0 (0.0)
|   |   |   |   prev2 = 9: 0 (0.0)
|   |   |   |   prev2 = SPACE: 0 (19.0)
|   |   |   |   prev2 = PERIOD: 0 (0.0)
|   |   |   |   prev2 = COMMA: 0 (0.0)
|   |   |   |   prev2 = OTHER: 0 (0.0)
|   |   |   |   prev2 = BOS: 0 (0.0)
|   |   |   |   prev2 = EOS: 0 (0.0)
|   |   |   next2 = e: 5 (0.0)
|   |   |   next2 = f: 5 (0.0)
|   |   |   next2 = g: 5 (0.0)
|   |   |   next2 = h: 5 (0.0)
|   |   |   next2 = i: 0 (1.0)
|   |   |   next2 = j: 5 (0.0)
|   |   |   next2 = k: 5 (0.0)
|   |   |   next2 = l: 0 (1.0)
|   |   |   next2 = m
|   |   |   |   prev2 = a: 0 (0.0)
|   |   |   |   prev2 = b: 0 (0.0)
|   |   |   |   prev2 = c: 0 (0.0)
|   |   |   |   prev2 = d: 0 (0.0)
|   |   |   |   prev2 = e: 0 (0.0)
|   |   |   |   prev2 = f: 5 (1.0)
|   |   |   |   prev2 = g: 0 (0.0)
|   |   |   |   prev2 = h: 0 (0.0)
|   |   |   |   prev2 = i: 0 (0.0)
|   |   |   |   prev2 = j: 0 (0.0)
|   |   |   |   prev2 = k: 0 (0.0)
|   |   |   |   prev2 = l: 0 (0.0)
|   |   |   |   prev2 = m: 0 (0.0)
|   |   |   |   prev2 = n: 0 (0.0)
|   |   |   |   prev2 = o: 0 (0.0)
|   |   |   |   prev2 = p: 5 (2.0)
|   |   |   |   prev2 = q: 0 (0.0)
|   |   |   |   prev2 = r: 0 (0.0)
|   |   |   |   prev2 = s: 0 (0.0)
|   |   |   |   prev2 = t: 0 (8.0)
|   |   |   |   prev2 = u: 0 (0.0)
|   |   |   |   prev2 = v: 0 (0.0)
|   |   |   |   prev2 = w: 0 (0.0)
|   |   |   |   prev2 = x: 0 (0.0)
|   |   |   |   prev2 = y: 0 (0.0)
|   |   |   |   prev2 = z: 0 (0.0)
|   |   |   |   prev2 = 0: 0 (0.0)
|   |   |   |   prev2 = 1: 0 (0.0)
|   |   |   |   prev2 = 2: 0 (0.0)
|   |   |   |   prev2 = 3: 0 (0.0)
|   |   |   |   prev2 = 4: 0 (0.0)
|   |   |   |   prev2 = 5: 0 (0.0)
|   |   |   |   prev2 = 6: 0 (0.0)
|   |   |   |   prev2 = 7: 0 (0.0)
|   |   |   |   prev2 = 8: 0 (0.0)
|   |   |   |   prev2 = 9: 0 (0.0)
|   |   |   |   prev2 = SPACE: 0 (2.0)
|   |   |   |   prev2 = PERIOD: 0 (0.0)
|   |   |   |   prev2 = COMMA: 0 (0.0)
|   |   |   |   prev2 = OTHER: 0 (0.0)
|   |   |   |   prev2 = BOS: 0 (0.0)
|   |   |   |   prev2 = EOS: 0 (0.0)
|   |   |   next2 = n
|   |   |   |   prev3 = a: 0 (0.0)
|   |   |   |   prev3 = b: 0 (0.0)
|   |   |   |   prev3 = c: 0 (0.0)
|   |   |   |   prev3 = d: 0 (0.0)
|   |   |   |   prev3 = e: 0 (0.0)
|   |   |   |   prev3 = f: 0 (0.0)
|   |   |   |   prev3 = g: 0 (0.0)
|   |   |   |   prev3 = h: 0 (0.0)
|   |   |   |   prev3 = i: 0 (0.0)
|   |   |   |   prev3 = j: 0 (0.0)
|   |   |   |   prev3 = k: 0 (0.0)
|   |   |   |   prev3 = l: 0 (0.0)
|   |   |   |   prev3 = m: 0 (0.0)
|   |   |   |   prev3 = n: 0 (0.0)
|   |   |   |   prev3 = o: 0 (0.0)
|   |   |   |   prev3 = p: 0 (0.0)
|   |   |   |   prev3 = q: 0 (0.0)
|   |   |   |   prev3 = r: 0 (0.0)
|   |   |   |   prev3 = s: 0 (3.0)
|   |   |   |   prev3 = t: 0 (0.0)
|   |   |   |   prev3 = u: 0 (0.0)
|   |   |   |   prev3 = v: 0 (0.0)
|   |   |   |   prev3 = w: 0 (0.0)
|   |   |   |   prev3 = x: 0 (0.0)
|   |   |   |   prev3 = y: 0 (0.0)
|   |   |   |   prev3 = z: 0 (0.0)
|   |   |   |   prev3 = 0: 0 (0.0)
|   |   |   |   prev3 = 1: 0 (0.0)
|   |   |   |   prev3 = 2: 0 (0.0)
|   |   |   |   prev3 = 3: 0 (0.0)
|   |   |   |   prev3 = 4: 0 (0.0)
|   |   |   |   prev3 = 5: 0 (0.0)
|   |   |   |   prev3 = 6: 0 (0.0)
|   |   |   |   prev3 = 7: 0 (0.0)
|   |   |   |   prev3 = 8: 0 (0.0)
|   |   |   |   prev3 = 9: 0 (0.0)
|   |   |   |   prev3 = SPACE: 5 (2.0)
|   |   |   |   prev3 = PERIOD: 0 (0.0)
|   |   |   |   prev3 = COMMA: 0 (0.0)
|   |   |   |   prev3 = OTHER: 0 (0.0)
|   |   |   |   prev3 = BOS: 0 (0.0)
|   |   |   |   prev3 = EOS: 0 (0.0)
|   |   |   next2 = o: 5 (967.0/1.0)
|   |   |   next2 = p: 5 (0.0)
|   |   |   next2 = q: 5 (0.0)
|   |   |   next2 = r: 0 (6.0/1.0)
|   |   |   next2 = s
|   |   |   |   next3 = a: 0 (0.0)
|   |   |   |   next3 = b: 0 (0.0)
|   |   |   |   next3 = c: 0 (0.0)
|   |   |   |   next3 = d: 0 (0.0)
|   |   |   |   next3 = e: 0 (0.0)
|   |   |   |   next3 = f: 0 (0.0)
|   |   |   |   next3 = g: 0 (0.0)
|   |   |   |   next3 = h: 0 (0.0)
|   |   |   |   next3 = i: 0 (0.0)
|   |   |   |   next3 = j: 0 (0.0)
|   |   |   |   next3 = k: 0 (0.0)
|   |   |   |   next3 = l: 0 (0.0)
|   |   |   |   next3 = m: 0 (0.0)
|   |   |   |   next3 = n: 0 (0.0)
|   |   |   |   next3 = o: 0 (3.0)
|   |   |   |   next3 = p: 0 (0.0)
|   |   |   |   next3 = q: 0 (0.0)
|   |   |   |   next3 = r: 0 (0.0)
|   |   |   |   next3 = s: 0 (6.0)
|   |   |   |   next3 = t: 0 (0.0)
|   |   |   |   next3 = u: 0 (0.0)
|   |   |   |   next3 = v: 0 (0.0)
|   |   |   |   next3 = w: 0 (0.0)
|   |   |   |   next3 = x: 0 (0.0)
|   |   |   |   next3 = y: 0 (0.0)
|   |   |   |   next3 = z: 0 (0.0)
|   |   |   |   next3 = 0: 0 (0.0)
|   |   |   |   next3 = 1: 0 (0.0)
|   |   |   |   next3 = 2: 0 (0.0)
|   |   |   |   next3 = 3: 0 (0.0)
|   |   |   |   next3 = 4: 0 (0.0)
|   |   |   |   next3 = 5: 0 (0.0)
|   |   |   |   next3 = 6: 0 (0.0)
|   |   |   |   next3 = 7: 0 (0.0)
|   |   |   |   next3 = 8: 0 (0.0)
|   |   |   |   next3 = 9: 0 (0.0)
|   |   |   |   next3 = SPACE: 5 (12.0/1.0)
|   |   |   |   next3 = PERIOD: 0 (1.0)
|   |   |   |   next3 = COMMA: 0 (1.0)
|   |   |   |   next3 = OTHER: 5 (1.0)
|   |   |   |   next3 = BOS: 0 (0.0)
|   |   |   |   next3 = EOS: 0 (0.0)
|   |   |   next2 = t: 0 (3.0)
|   |   |   next2 = u: 0 (2.0)
|   |   |   next2 = v: 0 (2.0)
|   |   |   next2 = w: 5 (0.0)
|   |   |   next2 = x: 0 (36.0)
|   |   |   next2 = y: 5 (0.0)
|   |   |   next2 = z: 5 (0.0)
|   |   |   next2 = 0: 5 (0.0)
|   |   |   next2 = 1: 5 (0.0)
|   |   |   next2 = 2: 5 (0.0)
|   |   |   next2 = 3: 5 (0.0)
|   |   |   next2 = 4: 5 (0.0)
|   |   |   next2 = 5: 5 (0.0)
|   |   |   next2 = 6: 5 (0.0)
|   |   |   next2 = 7: 5 (0.0)
|   |   |   next2 = 8: 5 (0.0)
|   |   |   next2 = 9: 5 (0.0)
|   |   |   next2 = SPACE: 5 (13.0/3.0)
|   |   |   next2 = PERIOD: 5 (0.0)
|   |   |   next2 = COMMA: 5 (8.0/3.0)
|   |   |   next2 = OTHER: 0 (1.0)
|   |   |   next2 = BOS: 5 (0.0)
|   |   |   next2 = EOS: 5 (0.0)
|   |   next1 = b: 5 (0.0)
|   |   next1 = c: 0 (17.0)
|   |   next1 = d: 5 (0.0)
|   |   next1 = e: 0 (82.0)
|   |   next1 = f: 5 (0.0)
|   |   next1 = g: 5 (0.0)
|   |   next1 = h: 0 (42.0)
|   |   next1 = i: 0 (398.0)
|   |   next1 = j: 5 (0.0)
|   |   next1 = k: 0 (6.0)
|   |   next1 = l: 0 (5.0)
|   |   next1 = m: 0 (1.0)
|   |   next1 = n: 5 (0.0)
|   |   next1 = o
|   |   |   next2 = a: 5 (1.0)
|   |   |   next2 = b: 0 (1.0)
|   |   |   next2 = c: 5 (0.0)
|   |   |   next2 = d: 5 (0.0)
|   |   |   next2 = e: 5 (310.0)
|   |   |   next2 = f: 5 (0.0)
|   |   |   next2 = g: 5 (0.0)
|   |   |   next2 = h: 5 (0.0)
|   |   |   next2 = i: 5 (0.0)
|   |   |   next2 = j: 5 (0.0)
|   |   |   next2 = k: 5 (0.0)
|   |   |   next2 = l: 0 (1.0)
|   |   |   next2 = m: 0 (9.0/1.0)
|   |   |   next2 = n: 0 (27.0)
|   |   |   next2 = o: 5 (0.0)
|   |   |   next2 = p: 0 (1.0)
|   |   |   next2 = q: 5 (0.0)
|   |   |   next2 = r: 0 (63.0/1.0)
|   |   |   next2 = s
|   |   |   |   prev2 = a: 5 (0.0)
|   |   |   |   prev2 = b: 5 (0.0)
|   |   |   |   prev2 = c: 5 (0.0)
|   |   |   |   prev2 = d: 5 (4.0)
|   |   |   |   prev2 = e: 5 (0.0)
|   |   |   |   prev2 = f: 5 (0.0)
|   |   |   |   prev2 = g: 5 (0.0)
|   |   |   |   prev2 = h: 5 (0.0)
|   |   |   |   prev2 = i: 0 (2.0)
|   |   |   |   prev2 = j: 5 (0.0)
|   |   |   |   prev2 = k: 5 (0.0)
|   |   |   |   prev2 = l: 5 (5.0)
|   |   |   |   prev2 = m: 5 (0.0)
|   |   |   |   prev2 = n: 5 (0.0)
|   |   |   |   prev2 = o: 5 (0.0)
|   |   |   |   prev2 = p: 5 (1.0)
|   |   |   |   prev2 = q: 5 (0.0)
|   |   |   |   prev2 = r: 0 (8.0/2.0)
|   |   |   |   prev2 = s: 5 (0.0)
|   |   |   |   prev2 = t: 5 (0.0)
|   |   |   |   prev2 = u: 5 (0.0)
|   |   |   |   prev2 = v: 5 (0.0)
|   |   |   |   prev2 = w: 5 (0.0)
|   |   |   |   prev2 = x: 5 (0.0)
|   |   |   |   prev2 = y: 5 (0.0)
|   |   |   |   prev2 = z: 5 (0.0)
|   |   |   |   prev2 = 0: 5 (0.0)
|   |   |   |   prev2 = 1: 5 (0.0)
|   |   |   |   prev2 = 2: 5 (0.0)
|   |   |   |   prev2 = 3: 5 (0.0)
|   |   |   |   prev2 = 4: 5 (0.0)
|   |   |   |   prev2 = 5: 5 (0.0)
|   |   |   |   prev2 = 6: 5 (0.0)
|   |   |   |   prev2 = 7: 5 (0.0)
|   |   |   |   prev2 = 8: 5 (0.0)
|   |   |   |   prev2 = 9: 5 (0.0)
|   |   |   |   prev2 = SPACE: 5 (0.0)
|   |   |   |   prev2 = PERIOD: 5 (0.0)
|   |   |   |   prev2 = COMMA: 5 (0.0)
|   |   |   |   prev2 = OTHER: 5 (0.0)
|   |   |   |   prev2 = BOS: 5 (0.0)
|   |   |   |   prev2 = EOS: 5 (0.0)
|   |   |   next2 = t: 5 (0.0)
|   |   |   next2 = u: 0 (9.0/1.0)
|   |   |   next2 = v: 5 (0.0)
|   |   |   next2 = w: 5 (0.0)
|   |   |   next2 = x: 5 (0.0)
|   |   |   next2 = y: 5 (0.0)
|   |   |   next2 = z: 5 (0.0)
|   |   |   next2 = 0: 5 (0.0)
|   |   |   next2 = 1: 5 (0.0)
|   |   |   next2 = 2: 5 (0.0)
|   |   |   next2 = 3: 5 (0.0)
|   |   |   next2 = 4: 5 (0.0)
|   |   |   next2 = 5: 5 (0.0)
|   |   |   next2 = 6: 5 (0.0)
|   |   |   next2 = 7: 5 (0.0)
|   |   |   next2 = 8: 5 (0.0)
|   |   |   next2 = 9: 5 (0.0)
|   |   |   next2 = SPACE
|   |   |   |   prev3 = a: 0 (2.0)
|   |   |   |   prev3 = b: 5 (2.0)
|   |   |   |   prev3 = c: 0 (1.0)
|   |   |   |   prev3 = d: 5 (0.0)
|   |   |   |   prev3 = e: 5 (2.0)
|   |   |   |   prev3 = f: 0 (3.0)
|   |   |   |   prev3 = g: 5 (0.0)
|   |   |   |   prev3 = h: 5 (0.0)
|   |   |   |   prev3 = i: 5 (0.0)
|   |   |   |   prev3 = j: 5 (0.0)
|   |   |   |   prev3 = k: 5 (0.0)
|   |   |   |   prev3 = l: 5 (0.0)
|   |   |   |   prev3 = m: 5 (0.0)
|   |   |   |   prev3 = n: 5 (0.0)
|   |   |   |   prev3 = o: 5 (0.0)
|   |   |   |   prev3 = p: 5 (0.0)
|   |   |   |   prev3 = q: 5 (0.0)
|   |   |   |   prev3 = r: 5 (0.0)
|   |   |   |   prev3 = s: 5 (11.0)
|   |   |   |   prev3 = t: 5 (0.0)
|   |   |   |   prev3 = u: 0 (5.0)
|   |   |   |   prev3 = v: 5 (0.0)
|   |   |   |   prev3 = w: 5 (0.0)
|   |   |   |   prev3 = x: 5 (0.0)
|   |   |   |   prev3 = y: 5 (0.0)
|   |   |   |   prev3 = z: 5 (0.0)
|   |   |   |   prev3 = 0: 5 (0.0)
|   |   |   |   prev3 = 1: 5 (0.0)
|   |   |   |   prev3 = 2: 5 (0.0)
|   |   |   |   prev3 = 3: 5 (0.0)
|   |   |   |   prev3 = 4: 5 (0.0)
|   |   |   |   prev3 = 5: 5 (0.0)
|   |   |   |   prev3 = 6: 5 (0.0)
|   |   |   |   prev3 = 7: 5 (0.0)
|   |   |   |   prev3 = 8: 5 (0.0)
|   |   |   |   prev3 = 9: 5 (0.0)
|   |   |   |   prev3 = SPACE: 0 (2.0/1.0)
|   |   |   |   prev3 = PERIOD: 5 (0.0)
|   |   |   |   prev3 = COMMA: 5 (1.0)
|   |   |   |   prev3 = OTHER: 5 (0.0)
|   |   |   |   prev3 = BOS: 5 (0.0)
|   |   |   |   prev3 = EOS: 5 (0.0)
|   |   |   next2 = PERIOD
|   |   |   |   prev3 = a: 0 (2.0)
|   |   |   |   prev3 = b: 5 (0.0)
|   |   |   |   prev3 = c: 0 (1.0)
|   |   |   |   prev3 = d: 5 (0.0)
|   |   |   |   prev3 = e: 5 (1.0)
|   |   |   |   prev3 = f: 5 (0.0)
|   |   |   |   prev3 = g: 5 (0.0)
|   |   |   |   prev3 = h: 5 (0.0)
|   |   |   |   prev3 = i: 5 (0.0)
|   |   |   |   prev3 = j: 5 (0.0)
|   |   |   |   prev3 = k: 5 (0.0)
|   |   |   |   prev3 = l: 5 (0.0)
|   |   |   |   prev3 = m: 5 (0.0)
|   |   |   |   prev3 = n: 5 (0.0)
|   |   |   |   prev3 = o: 5 (0.0)
|   |   |   |   prev3 = p: 5 (0.0)
|   |   |   |   prev3 = q: 5 (0.0)
|   |   |   |   prev3 = r: 5 (0.0)
|   |   |   |   prev3 = s: 5 (5.0)
|   |   |   |   prev3 = t: 5 (0.0)
|   |   |   |   prev3 = u: 5 (0.0)
|   |   |   |   prev3 = v: 5 (0.0)
|   |   |   |   prev3 = w: 5 (0.0)
|   |   |   |   prev3 = x: 5 (0.0)
|   |   |   |   prev3 = y: 5 (0.0)
|   |   |   |   prev3 = z: 5 (0.0)
|   |   |   |   prev3 = 0: 5 (0.0)
|   |   |   |   prev3 = 1: 5 (0.0)
|   |   |   |   prev3 = 2: 5 (0.0)
|   |   |   |   prev3 = 3: 5 (0.0)
|   |   |   |   prev3 = 4: 5 (0.0)
|   |   |   |   prev3 = 5: 5 (0.0)
|   |   |   |   prev3 = 6: 5 (0.0)
|   |   |   |   prev3 = 7: 5 (0.0)
|   |   |   |   prev3 = 8: 5 (0.0)
|   |   |   |   prev3 = 9: 5 (0.0)
|   |   |   |   prev3 = SPACE: 5 (0.0)
|   |   |   |   prev3 = PERIOD: 5 (0.0)
|   |   |   |   prev3 = COMMA: 5 (0.0)
|   |   |   |   prev3 = OTHER: 5 (0.0)
|   |   |   |   prev3 = BOS: 5 (0.0)
|   |   |   |   prev3 = EOS: 5 (0.0)
|   |   |   next2 = COMMA: 5 (7.0/2.0)
|   |   |   next2 = OTHER: 5 (4.0/1.0)
|   |   |   next2 = BOS: 5 (0.0)
|   |   |   next2 = EOS: 5 (0.0)
|   |   next1 = p: 6 (1.0)
|   |   next1 = q: 0 (1.0)
|   |   next1 = r: 0 (57.0)
|   |   next1 = s: 0 (2.0)
|   |   next1 = t: 0 (101.0)
|   |   next1 = u: 0 (44.0/6.0)
|   |   next1 = v: 5 (0.0)
|   |   next1 = w: 5 (0.0)
|   |   next1 = x: 5 (0.0)
|   |   next1 = y: 5 (0.0)
|   |   next1 = z: 5 (0.0)
|   |   next1 = 0: 5 (0.0)
|   |   next1 = 1: 5 (0.0)
|   |   next1 = 2: 5 (0.0)
|   |   next1 = 3: 5 (0.0)
|   |   next1 = 4: 5 (0.0)
|   |   next1 = 5: 5 (0.0)
|   |   next1 = 6: 5 (0.0)
|   |   next1 = 7: 5 (0.0)
|   |   next1 = 8: 5 (0.0)
|   |   next1 = 9: 5 (0.0)
|   |   next1 = SPACE: 0 (1.0)
|   |   next1 = PERIOD: 6 (2.0)
|   |   next1 = COMMA: 5 (0.0)
|   |   next1 = OTHER: 0 (2.0/1.0)
|   |   next1 = BOS: 5 (0.0)
|   |   next1 = EOS: 5 (0.0)
|   letter = d: 0 (4098.0/2.0)
|   letter = e: 0 (73.0/12.0)
|   letter = f: 0 (370.0/5.0)
|   letter = g: 0 (553.0/1.0)
|   letter = h: 0 (90.0)
|   letter = i
|   |   prev2 = a: 6 (1.0)
|   |   prev2 = b: 0 (78.0/2.0)
|   |   prev2 = c: 0 (54.0/1.0)
|   |   prev2 = d
|   |   |   next1 = a: 2 (0.0)
|   |   |   next1 = b: 2 (0.0)
|   |   |   next1 = c: 0 (7.0)
|   |   |   next1 = d: 2 (0.0)
|   |   |   next1 = e: 2 (0.0)
|   |   |   next1 = f: 2 (0.0)
|   |   |   next1 = g: 2 (0.0)
|   |   |   next1 = h: 2 (0.0)
|   |   |   next1 = i: 2 (0.0)
|   |   |   next1 = j: 2 (0.0)
|   |   |   next1 = k: 2 (0.0)
|   |   |   next1 = l: 2 (0.0)
|   |   |   next1 = m: 2 (0.0)
|   |   |   next1 = n: 2 (0.0)
|   |   |   next1 = o: 2 (0.0)
|   |   |   next1 = p: 2 (0.0)
|   |   |   next1 = q: 2 (0.0)
|   |   |   next1 = r: 2 (0.0)
|   |   |   next1 = s: 2 (2.0)
|   |   |   next1 = t: 2 (0.0)
|   |   |   next1 = u: 2 (0.0)
|   |   |   next1 = v: 2 (0.0)
|   |   |   next1 = w: 2 (0.0)
|   |   |   next1 = x: 2 (0.0)
|   |   |   next1 = y: 2 (0.0)
|   |   |   next1 = z: 2 (0.0)
|   |   |   next1 = 0: 2 (0.0)
|   |   |   next1 = 1: 2 (0.0)
|   |   |   next1 = 2: 2 (0.0)
|   |   |   next1 = 3: 2 (0.0)
|   |   |   next1 = 4: 2 (0.0)
|   |   |   next1 = 5: 2 (0.0)
|   |   |   next1 = 6: 2 (0.0)
|   |   |   next1 = 7: 2 (0.0)
|   |   |   next1 = 8: 2 (0.0)
|   |   |   next1 = 9: 2 (0.0)
|   |   |   next1 = SPACE: 2 (7.0)
|   |   |   next1 = PERIOD: 2 (0.0)
|   |   |   next1 = COMMA: 2 (0.0)
|   |   |   next1 = OTHER: 2 (0.0)
|   |   |   next1 = BOS: 2 (0.0)
|   |   |   next1 = EOS: 2 (0.0)
|   |   prev2 = e: 0 (7.0)
|   |   prev2 = f: 0 (17.0)
|   |   prev2 = g: 0 (3.0)
|   |   prev2 = h: 0 (17.0)
|   |   prev2 = i: 0 (119.0)
|   |   prev2 = j: 0 (0.0)
|   |   prev2 = k: 0 (2.0)
|   |   prev2 = l: 0 (3.0)
|   |   prev2 = m: 0 (745.0)
|   |   prev2 = n
|   |   |   next1 = a: 0 (0.0)
|   |   |   next1 = b: 0 (0.0)
|   |   |   next1 = c: 0 (0.0)
|   |   |   next1 = d: 0 (0.0)
|   |   |   next1 = e: 0 (0.0)
|   |   |   next1 = f: 0 (0.0)
|   |   |   next1 = g: 0 (0.0)
|   |   |   next1 = h: 0 (0.0)
|   |   |   next1 = i: 0 (0.0)
|   |   |   next1 = j: 0 (0.0)
|   |   |   next1 = k: 0 (0.0)
|   |   |   next1 = l: 0 (0.0)
|   |   |   next1 = m: 0 (0.0)
|   |   |   next1 = n: 0 (0.0)
|   |   |   next1 = o: 0 (0.0)
|   |   |   next1 = p: 0 (0.0)
|   |   |   next1 = q: 0 (0.0)
|   |   |   next1 = r: 0 (0.0)
|   |   |   next1 = s: 0 (104.0)
|   |   |   next1 = t: 0 (0.0)
|   |   |   next1 = u: 0 (0.0)
|   |   |   next1 = v: 0 (0.0)
|   |   |   next1 = w: 0 (0.0)
|   |   |   next1 = x: 0 (0.0)
|   |   |   next1 = y: 0 (0.0)
|   |   |   next1 = z: 0 (0.0)
|   |   |   next1 = 0: 0 (0.0)
|   |   |   next1 = 1: 0 (0.0)
|   |   |   next1 = 2: 0 (0.0)
|   |   |   next1 = 3: 0 (0.0)
|   |   |   next1 = 4: 0 (0.0)
|   |   |   next1 = 5: 0 (0.0)
|   |   |   next1 = 6: 0 (0.0)
|   |   |   next1 = 7: 0 (0.0)
|   |   |   next1 = 8: 0 (0.0)
|   |   |   next1 = 9: 0 (0.0)
|   |   |   next1 = SPACE: 0 (0.0)
|   |   |   next1 = PERIOD: 0 (0.0)
|   |   |   next1 = COMMA: 0 (0.0)
|   |   |   next1 = OTHER: 2 (2.0)
|   |   |   next1 = BOS: 0 (0.0)
|   |   |   next1 = EOS: 0 (0.0)
|   |   prev2 = o: 0 (4.0)
|   |   prev2 = p
|   |   |   prev3 = a: 0 (4.0)
|   |   |   prev3 = b: 2 (0.0)
|   |   |   prev3 = c: 2 (0.0)
|   |   |   prev3 = d: 2 (0.0)
|   |   |   prev3 = e: 2 (0.0)
|   |   |   prev3 = f: 2 (0.0)
|   |   |   prev3 = g: 2 (0.0)
|   |   |   prev3 = h: 2 (0.0)
|   |   |   prev3 = i: 0 (41.0)
|   |   |   prev3 = j: 2 (0.0)
|   |   |   prev3 = k: 2 (0.0)
|   |   |   prev3 = l: 2 (0.0)
|   |   |   prev3 = m: 0 (18.0)
|   |   |   prev3 = n: 2 (0.0)
|   |   |   prev3 = o: 2 (0.0)
|   |   |   prev3 = p: 2 (0.0)
|   |   |   prev3 = q: 2 (0.0)
|   |   |   prev3 = r: 2 (0.0)
|   |   |   prev3 = s: 2 (0.0)
|   |   |   prev3 = t: 2 (0.0)
|   |   |   prev3 = u: 2 (0.0)
|   |   |   prev3 = v: 2 (0.0)
|   |   |   prev3 = w: 2 (0.0)
|   |   |   prev3 = x: 2 (0.0)
|   |   |   prev3 = y: 2 (0.0)
|   |   |   prev3 = z: 2 (0.0)
|   |   |   prev3 = 0: 2 (0.0)
|   |   |   prev3 = 1: 2 (0.0)
|   |   |   prev3 = 2: 2 (0.0)
|   |   |   prev3 = 3: 2 (0.0)
|   |   |   prev3 = 4: 2 (0.0)
|   |   |   prev3 = 5: 2 (0.0)
|   |   |   prev3 = 6: 2 (0.0)
|   |   |   prev3 = 7: 2 (0.0)
|   |   |   prev3 = 8: 2 (0.0)
|   |   |   prev3 = 9: 2 (0.0)
|   |   |   prev3 = SPACE
|   |   |   |   next1 = a: 2 (0.0)
|   |   |   |   next1 = b: 2 (0.0)
|   |   |   |   next1 = c: 2 (0.0)
|   |   |   |   next1 = d: 2 (0.0)
|   |   |   |   next1 = e: 2 (0.0)
|   |   |   |   next1 = f: 2 (0.0)
|   |   |   |   next1 = g: 2 (0.0)
|   |   |   |   next1 = h: 2 (0.0)
|   |   |   |   next1 = i: 2 (0.0)
|   |   |   |   next1 = j: 2 (0.0)
|   |   |   |   next1 = k: 2 (0.0)
|   |   |   |   next1 = l: 2 (0.0)
|   |   |   |   next1 = m: 2 (0.0)
|   |   |   |   next1 = n: 0 (9.0)
|   |   |   |   next1 = o: 2 (0.0)
|   |   |   |   next1 = p: 2 (0.0)
|   |   |   |   next1 = q: 2 (0.0)
|   |   |   |   next1 = r: 2 (0.0)
|   |   |   |   next1 = s: 2 (300.0/6.0)
|   |   |   |   next1 = t: 2 (0.0)
|   |   |   |   next1 = u: 2 (0.0)
|   |   |   |   next1 = v: 2 (0.0)
|   |   |   |   next1 = w: 2 (0.0)
|   |   |   |   next1 = x: 0 (1.0)
|   |   |   |   next1 = y: 2 (0.0)
|   |   |   |   next1 = z: 2 (0.0)
|   |   |   |   next1 = 0: 2 (0.0)
|   |   |   |   next1 = 1: 2 (0.0)
|   |   |   |   next1 = 2: 2 (0.0)
|   |   |   |   next1 = 3: 2 (0.0)
|   |   |   |   next1 = 4: 2 (0.0)
|   |   |   |   next1 = 5: 2 (0.0)
|   |   |   |   next1 = 6: 2 (0.0)
|   |   |   |   next1 = 7: 2 (0.0)
|   |   |   |   next1 = 8: 2 (0.0)
|   |   |   |   next1 = 9: 2 (0.0)
|   |   |   |   next1 = SPACE: 0 (10.0)
|   |   |   |   next1 = PERIOD: 0 (1.0)
|   |   |   |   next1 = COMMA: 0 (3.0)
|   |   |   |   next1 = OTHER: 0 (2.0)
|   |   |   |   next1 = BOS: 2 (0.0)
|   |   |   |   next1 = EOS: 2 (0.0)
|   |   |   prev3 = PERIOD: 2 (0.0)
|   |   |   prev3 = COMMA: 2 (0.0)
|   |   |   prev3 = OTHER: 2 (4.0/1.0)
|   |   |   prev3 = BOS: 2 (0.0)
|   |   |   prev3 = EOS: 2 (0.0)
|   |   prev2 = q: 0 (1.0)
|   |   prev2 = r: 0 (142.0/8.0)
|   |   prev2 = s
|   |   |   next2 = a: 2 (8.0/1.0)
|   |   |   next2 = b: 0 (0.0)
|   |   |   next2 = c: 0 (0.0)
|   |   |   next2 = d: 0 (1.0)
|   |   |   next2 = e: 0 (0.0)
|   |   |   next2 = f: 0 (0.0)
|   |   |   next2 = g: 0 (0.0)
|   |   |   next2 = h: 0 (0.0)
|   |   |   next2 = i: 0 (1.0)
|   |   |   next2 = j: 0 (0.0)
|   |   |   next2 = k: 0 (0.0)
|   |   |   next2 = l: 0 (0.0)
|   |   |   next2 = m: 0 (0.0)
|   |   |   next2 = n: 0 (0.0)
|   |   |   next2 = o: 2 (1.0)
|   |   |   next2 = p: 0 (0.0)
|   |   |   next2 = q: 0 (0.0)
|   |   |   next2 = r: 0 (0.0)
|   |   |   next2 = s: 2 (1.0)
|   |   |   next2 = t: 0 (2.0)
|   |   |   next2 = u: 0 (0.0)
|   |   |   next2 = v: 0 (0.0)
|   |   |   next2 = w: 0 (0.0)
|   |   |   next2 = x: 0 (0.0)
|   |   |   next2 = y: 0 (0.0)
|   |   |   next2 = z: 0 (0.0)
|   |   |   next2 = 0: 0 (0.0)
|   |   |   next2 = 1: 0 (0.0)
|   |   |   next2 = 2: 0 (0.0)
|   |   |   next2 = 3: 0 (0.0)
|   |   |   next2 = 4: 0 (0.0)
|   |   |   next2 = 5: 0 (0.0)
|   |   |   next2 = 6: 0 (0.0)
|   |   |   next2 = 7: 0 (0.0)
|   |   |   next2 = 8: 0 (0.0)
|   |   |   next2 = 9: 0 (0.0)
|   |   |   next2 = SPACE: 0 (14.0/3.0)
|   |   |   next2 = PERIOD: 0 (0.0)
|   |   |   next2 = COMMA: 0 (0.0)
|   |   |   next2 = OTHER: 0 (0.0)
|   |   |   next2 = BOS: 0 (0.0)
|   |   |   next2 = EOS: 0 (0.0)
|   |   prev2 = t: 0 (70.0)
|   |   prev2 = u: 0 (144.0)
|   |   prev2 = v
|   |   |   prev3 = a: 2 (2.0)
|   |   |   prev3 = b: 0 (0.0)
|   |   |   prev3 = c: 0 (0.0)
|   |   |   prev3 = d: 0 (0.0)
|   |   |   prev3 = e: 0 (0.0)
|   |   |   prev3 = f: 0 (0.0)
|   |   |   prev3 = g: 0 (0.0)
|   |   |   prev3 = h: 0 (0.0)
|   |   |   prev3 = i: 0 (3.0)
|   |   |   prev3 = j: 0 (0.0)
|   |   |   prev3 = k: 0 (0.0)
|   |   |   prev3 = l: 0 (0.0)
|   |   |   prev3 = m: 0 (0.0)
|   |   |   prev3 = n: 0 (0.0)
|   |   |   prev3 = o: 0 (0.0)
|   |   |   prev3 = p: 0 (0.0)
|   |   |   prev3 = q: 0 (0.0)
|   |   |   prev3 = r: 0 (0.0)
|   |   |   prev3 = s: 0 (0.0)
|   |   |   prev3 = t: 0 (0.0)
|   |   |   prev3 = u: 0 (0.0)
|   |   |   prev3 = v: 0 (0.0)
|   |   |   prev3 = w: 0 (0.0)
|   |   |   prev3 = x: 0 (0.0)
|   |   |   prev3 = y: 0 (0.0)
|   |   |   prev3 = z: 0 (0.0)
|   |   |   prev3 = 0: 0 (0.0)
|   |   |   prev3 = 1: 0 (0.0)
|   |   |   prev3 = 2: 0 (0.0)
|   |   |   prev3 = 3: 0 (0.0)
|   |   |   prev3 = 4: 0 (0.0)
|   |   |   prev3 = 5: 0 (0.0)
|   |   |   prev3 = 6: 0 (0.0)
|   |   |   prev3 = 7: 0 (0.0)
|   |   |   prev3 = 8: 0 (0.0)
|   |   |   prev3 = 9: 0 (0.0)
|   |   |   prev3 = SPACE: 0 (15.0)
|   |   |   prev3 = PERIOD: 0 (0.0)
|   |   |   prev3 = COMMA: 0 (0.0)
|   |   |   prev3 = OTHER: 0 (0.0)
|   |   |   prev3 = BOS: 0 (0.0)
|   |   |   prev3 = EOS: 0 (0.0)
|   |   prev2 = w: 0 (2.0)
|   |   prev2 = x: 0 (0.0)
|   |   prev2 = y: 0 (0.0)
|   |   prev2 = z: 0 (14.0)
|   |   prev2 = 0: 0 (0.0)
|   |   prev2 = 1: 0 (0.0)
|   |   prev2 = 2: 0 (0.0)
|   |   prev2 = 3: 0 (0.0)
|   |   prev2 = 4: 0 (0.0)
|   |   prev2 = 5: 0 (0.0)
|   |   prev2 = 6: 0 (0.0)
|   |   prev2 = 7: 0 (0.0)
|   |   prev2 = 8: 0 (0.0)
|   |   prev2 = 9: 0 (0.0)
|   |   prev2 = SPACE: 0 (149.0/4.0)
|   |   prev2 = PERIOD: 0 (2.0)
|   |   prev2 = COMMA: 0 (0.0)
|   |   prev2 = OTHER: 6 (4.0/1.0)
|   |   prev2 = BOS: 0 (0.0)
|   |   prev2 = EOS: 0 (0.0)
|   letter = j: 0 (87.0)
|   letter = k: 0 (49.0)
|   letter = l: 0 (3672.0/13.0)
|   letter = m: 0 (2942.0)
|   letter = n: 0 (4917.0/4.0)
|   letter = o: 0 (3470.0/4.0)
|   letter = p: 0 (749.0)
|   letter = q: 0 (392.0)
|   letter = r: 0 (5147.0)
|   letter = s: 0 (6455.0/7.0)
|   letter = t: 0 (2222.0)
|   letter = u: 0 (450.0/20.0)
|   letter = v: 0 (757.0/1.0)
|   letter = w: 0 (11.0)
|   letter = x: 0 (116.0)
|   letter = y: 0 (29.0)
|   letter = z: 0 (215.0)
|   letter = 0: 0 (0.0)
|   letter = 1: 0 (0.0)
|   letter = 2: 0 (0.0)
|   letter = 3: 0 (0.0)
|   letter = 4: 0 (0.0)
|   letter = 5: 0 (0.0)
|   letter = 6: 0 (0.0)
|   letter = 7: 0 (0.0)
|   letter = 8: 0 (0.0)
|   letter = 9: 0 (0.0)
|   letter = SPACE: 0 (15096.0)
|   letter = PERIOD: 0 (662.0)
|   letter = COMMA: 0 (1159.0)
|   letter = OTHER: 0 (415.0)
|   letter = BOS: 0 (0.0)
|   letter = EOS: 0 (0.0)
prev1 = b
|   next1 = a: 0 (350.0)
|   next1 = b: 0 (37.0/7.0)
|   next1 = c: 0 (104.0/2.0)
|   next1 = d: 0 (74.0/1.0)
|   next1 = e: 0 (569.0/2.0)
|   next1 = f: 0 (0.0)
|   next1 = g: 0 (7.0/1.0)
|   next1 = h: 0 (7.0)
|   next1 = i: 0 (463.0/2.0)
|   next1 = j: 0 (4.0)
|   next1 = k: 0 (15.0)
|   next1 = l: 0 (530.0/6.0)
|   next1 = m
|   |   prev2 = a: 0 (3.0)
|   |   prev2 = b: 2 (0.0)
|   |   prev2 = c: 2 (0.0)
|   |   prev2 = d: 2 (0.0)
|   |   prev2 = e: 0 (2.0)
|   |   prev2 = f: 2 (0.0)
|   |   prev2 = g: 2 (0.0)
|   |   prev2 = h: 2 (0.0)
|   |   prev2 = i: 2 (0.0)
|   |   prev2 = j: 2 (0.0)
|   |   prev2 = k: 2 (0.0)
|   |   prev2 = l: 2 (0.0)
|   |   prev2 = m: 2 (184.0)
|   |   prev2 = n: 2 (0.0)
|   |   prev2 = o: 0 (2.0)
|   |   prev2 = p: 2 (0.0)
|   |   prev2 = q: 2 (0.0)
|   |   prev2 = r: 2 (0.0)
|   |   prev2 = s: 2 (0.0)
|   |   prev2 = t: 2 (0.0)
|   |   prev2 = u: 2 (0.0)
|   |   prev2 = v: 2 (0.0)
|   |   prev2 = w: 2 (0.0)
|   |   prev2 = x: 2 (0.0)
|   |   prev2 = y: 2 (0.0)
|   |   prev2 = z: 2 (0.0)
|   |   prev2 = 0: 2 (0.0)
|   |   prev2 = 1: 2 (0.0)
|   |   prev2 = 2: 2 (0.0)
|   |   prev2 = 3: 2 (0.0)
|   |   prev2 = 4: 2 (0.0)
|   |   prev2 = 5: 2 (0.0)
|   |   prev2 = 6: 2 (0.0)
|   |   prev2 = 7: 2 (0.0)
|   |   prev2 = 8: 2 (0.0)
|   |   prev2 = 9: 2 (0.0)
|   |   prev2 = SPACE: 0 (99.0)
|   |   prev2 = PERIOD: 2 (0.0)
|   |   prev2 = COMMA: 2 (0.0)
|   |   prev2 = OTHER: 2 (0.0)
|   |   prev2 = BOS: 2 (0.0)
|   |   prev2 = EOS: 2 (0.0)
|   next1 = n: 0 (252.0/8.0)
|   next1 = o: 0 (223.0/1.0)
|   next1 = p: 0 (7.0)
|   next1 = q: 0 (7.0)
|   next1 = r: 0 (505.0/9.0)
|   next1 = s: 0 (234.0/26.0)
|   next1 = t: 0 (202.0/5.0)
|   next1 = u: 0 (59.0)
|   next1 = v: 0 (5.0)
|   next1 = w: 0 (1.0)
|   next1 = x: 0 (1.0)
|   next1 = y: 0 (2.0)
|   next1 = z: 0 (4.0)
|   next1 = 0: 0 (0.0)
|   next1 = 1: 0 (1.0)
|   next1 = 2: 0 (0.0)
|   next1 = 3: 0 (1.0)
|   next1 = 4: 0 (0.0)
|   next1 = 5: 0 (0.0)
|   next1 = 6: 0 (0.0)
|   next1 = 7: 0 (0.0)
|   next1 = 8: 0 (0.0)
|   next1 = 9: 0 (0.0)
|   next1 = SPACE: 0 (96.0/9.0)
|   next1 = PERIOD: 0 (15.0/2.0)
|   next1 = COMMA: 0 (28.0/6.0)
|   next1 = OTHER: 0 (12.0/1.0)
|   next1 = BOS: 0 (0.0)
|   next1 = EOS: 0 (0.0)
prev1 = c
|   next1 = a
|   |   letter = a: 0 (0.0)
|   |   letter = b: 0 (0.0)
|   |   letter = c: 5 (17.0/2.0)
|   |   letter = d: 0 (0.0)
|   |   letter = e: 0 (38.0/1.0)
|   |   letter = f: 0 (0.0)
|   |   letter = g: 0 (0.0)
|   |   letter = h: 0 (124.0)
|   |   letter = i: 0 (1091.0/3.0)
|   |   letter = j: 0 (0.0)
|   |   letter = k: 0 (1.0)
|   |   letter = l: 0 (128.0)
|   |   letter = m: 0 (0.0)
|   |   letter = n: 6 (2.0)
|   |   letter = o: 0 (12.0)
|   |   letter = p: 0 (0.0)
|   |   letter = q: 0 (0.0)
|   |   letter = r: 0 (60.0)
|   |   letter = s: 0 (0.0)
|   |   letter = t: 0 (23.0)
|   |   letter = u: 0 (15.0)
|   |   letter = v: 0 (0.0)
|   |   letter = w: 0 (0.0)
|   |   letter = x: 0 (0.0)
|   |   letter = y: 0 (0.0)
|   |   letter = z: 0 (2.0)
|   |   letter = 0: 0 (0.0)
|   |   letter = 1: 0 (0.0)
|   |   letter = 2: 0 (0.0)
|   |   letter = 3: 0 (0.0)
|   |   letter = 4: 0 (0.0)
|   |   letter = 5: 0 (0.0)
|   |   letter = 6: 0 (0.0)
|   |   letter = 7: 0 (0.0)
|   |   letter = 8: 0 (0.0)
|   |   letter = 9: 0 (0.0)
|   |   letter = SPACE: 0 (12.0)
|   |   letter = PERIOD: 0 (2.0)
|   |   letter = COMMA: 0 (0.0)
|   |   letter = OTHER: 0 (0.0)
|   |   letter = BOS: 0 (0.0)
|   |   letter = EOS: 0 (0.0)
|   next1 = b: 0 (208.0/7.0)
|   next1 = c: 0 (256.0/10.0)
|   next1 = d: 0 (741.0/10.0)
|   next1 = e
|   |   letter = a: 0 (1.0)
|   |   letter = b: 0 (0.0)
|   |   letter = c: 0 (0.0)
|   |   letter = d: 0 (0.0)
|   |   letter = e: 0 (0.0)
|   |   letter = f: 0 (0.0)
|   |   letter = g: 0 (0.0)
|   |   letter = h: 0 (115.0)
|   |   letter = i: 0 (268.0)
|   |   letter = j: 0 (0.0)
|   |   letter = k: 0 (7.0)
|   |   letter = l: 0 (32.0)
|   |   letter = m: 0 (1.0)
|   |   letter = n: 0 (0.0)
|   |   letter = o
|   |   |   next3 = a: 0 (3.0)
|   |   |   next3 = b: 4 (0.0)
|   |   |   next3 = c: 0 (8.0)
|   |   |   next3 = d: 4 (1.0)
|   |   |   next3 = e: 4 (0.0)
|   |   |   next3 = f: 4 (0.0)
|   |   |   next3 = g: 4 (0.0)
|   |   |   next3 = h: 4 (0.0)
|   |   |   next3 = i: 0 (1.0)
|   |   |   next3 = j: 4 (0.0)
|   |   |   next3 = k: 4 (0.0)
|   |   |   next3 = l: 4 (0.0)
|   |   |   next3 = m: 4 (0.0)
|   |   |   next3 = n: 4 (0.0)
|   |   |   next3 = o: 0 (1.0)
|   |   |   next3 = p: 4 (0.0)
|   |   |   next3 = q: 4 (0.0)
|   |   |   next3 = r: 4 (0.0)
|   |   |   next3 = s: 4 (0.0)
|   |   |   next3 = t: 4 (0.0)
|   |   |   next3 = u: 4 (0.0)
|   |   |   next3 = v: 4 (0.0)
|   |   |   next3 = w: 4 (0.0)
|   |   |   next3 = x: 4 (0.0)
|   |   |   next3 = y: 4 (0.0)
|   |   |   next3 = z: 4 (0.0)
|   |   |   next3 = 0: 4 (0.0)
|   |   |   next3 = 1: 4 (0.0)
|   |   |   next3 = 2: 4 (0.0)
|   |   |   next3 = 3: 4 (0.0)
|   |   |   next3 = 4: 4 (0.0)
|   |   |   next3 = 5: 4 (0.0)
|   |   |   next3 = 6: 4 (0.0)
|   |   |   next3 = 7: 4 (0.0)
|   |   |   next3 = 8: 4 (0.0)
|   |   |   next3 = 9: 4 (0.0)
|   |   |   next3 = SPACE: 4 (438.0)
|   |   |   next3 = PERIOD: 4 (23.0)
|   |   |   next3 = COMMA: 4 (36.0)
|   |   |   next3 = OTHER: 4 (5.0)
|   |   |   next3 = BOS: 4 (0.0)
|   |   |   next3 = EOS: 4 (0.0)
|   |   letter = p: 0 (0.0)
|   |   letter = q: 0 (0.0)
|   |   letter = r: 0 (197.0)
|   |   letter = s: 0 (0.0)
|   |   letter = t: 0 (39.0)
|   |   letter = u: 0 (3.0)
|   |   letter = v: 0 (0.0)
|   |   letter = w: 0 (0.0)
|   |   letter = x: 0 (0.0)
|   |   letter = y: 0 (0.0)
|   |   letter = z: 0 (0.0)
|   |   letter = 0: 0 (0.0)
|   |   letter = 1: 0 (0.0)
|   |   letter = 2: 0 (0.0)
|   |   letter = 3: 0 (0.0)
|   |   letter = 4: 0 (0.0)
|   |   letter = 5: 0 (0.0)
|   |   letter = 6: 0 (0.0)
|   |   letter = 7: 0 (0.0)
|   |   letter = 8: 0 (0.0)
|   |   letter = 9: 0 (0.0)
|   |   letter = SPACE: 0 (12.0)
|   |   letter = PERIOD: 0 (2.0)
|   |   letter = COMMA: 0 (0.0)
|   |   letter = OTHER: 0 (0.0)
|   |   letter = BOS: 0 (0.0)
|   |   letter = EOS: 0 (0.0)
|   next1 = f
|   |   next3 = a: 0 (0.0)
|   |   next3 = b: 0 (0.0)
|   |   next3 = c: 2 (24.0/8.0)
|   |   next3 = d: 0 (0.0)
|   |   next3 = e: 0 (1.0)
|   |   next3 = f: 0 (0.0)
|   |   next3 = g: 0 (0.0)
|   |   next3 = h: 0 (0.0)
|   |   next3 = i: 0 (1.0)
|   |   next3 = j: 0 (0.0)
|   |   next3 = k: 0 (0.0)
|   |   next3 = l: 0 (1.0)
|   |   next3 = m: 0 (3.0)
|   |   next3 = n: 2 (1.0)
|   |   next3 = o: 0 (0.0)
|   |   next3 = p: 0 (0.0)
|   |   next3 = q: 0 (0.0)
|   |   next3 = r: 0 (0.0)
|   |   next3 = s: 0 (4.0)
|   |   next3 = t: 0 (0.0)
|   |   next3 = u: 0 (0.0)
|   |   next3 = v: 0 (0.0)
|   |   next3 = w: 0 (0.0)
|   |   next3 = x: 0 (0.0)
|   |   next3 = y: 0 (0.0)
|   |   next3 = z: 0 (0.0)
|   |   next3 = 0: 0 (0.0)
|   |   next3 = 1: 0 (0.0)
|   |   next3 = 2: 0 (0.0)
|   |   next3 = 3: 0 (0.0)
|   |   next3 = 4: 0 (0.0)
|   |   next3 = 5: 0 (0.0)
|   |   next3 = 6: 0 (0.0)
|   |   next3 = 7: 0 (0.0)
|   |   next3 = 8: 0 (0.0)
|   |   next3 = 9: 0 (0.0)
|   |   next3 = SPACE: 0 (2.0)
|   |   next3 = PERIOD: 0 (0.0)
|   |   next3 = COMMA: 0 (2.0)
|   |   next3 = OTHER: 0 (0.0)
|   |   next3 = BOS: 0 (0.0)
|   |   next3 = EOS: 0 (0.0)
|   next1 = g
|   |   prev2 = a: 0 (0.0)
|   |   prev2 = b: 0 (0.0)
|   |   prev2 = c: 0 (0.0)
|   |   prev2 = d: 0 (0.0)
|   |   prev2 = e: 0 (0.0)
|   |   prev2 = f: 0 (0.0)
|   |   prev2 = g: 0 (0.0)
|   |   prev2 = h: 0 (0.0)
|   |   prev2 = i: 0 (6.0)
|   |   prev2 = j: 0 (0.0)
|   |   prev2 = k: 0 (0.0)
|   |   prev2 = l: 0 (0.0)
|   |   prev2 = m: 0 (0.0)
|   |   prev2 = n: 2 (3.0)
|   |   prev2 = o: 0 (0.0)
|   |   prev2 = p: 0 (0.0)
|   |   prev2 = q: 0 (0.0)
|   |   prev2 = r: 0 (0.0)
|   |   prev2 = s: 0 (1.0)
|   |   prev2 = t: 0 (0.0)
|   |   prev2 = u: 0 (0.0)
|   |   prev2 = v: 0 (0.0)
|   |   prev2 = w: 0 (0.0)
|   |   prev2 = x: 0 (0.0)
|   |   prev2 = y: 0 (0.0)
|   |   prev2 = z: 0 (0.0)
|   |   prev2 = 0: 0 (0.0)
|   |   prev2 = 1: 0 (0.0)
|   |   prev2 = 2: 0 (0.0)
|   |   prev2 = 3: 0 (0.0)
|   |   prev2 = 4: 0 (0.0)
|   |   prev2 = 5: 0 (0.0)
|   |   prev2 = 6: 0 (0.0)
|   |   prev2 = 7: 0 (0.0)
|   |   prev2 = 8: 0 (0.0)
|   |   prev2 = 9: 0 (0.0)
|   |   prev2 = SPACE: 0 (7.0)
|   |   prev2 = PERIOD: 0 (0.0)
|   |   prev2 = COMMA: 0 (0.0)
|   |   prev2 = OTHER: 0 (0.0)
|   |   prev2 = BOS: 0 (0.0)
|   |   prev2 = EOS: 0 (0.0)
|   next1 = h: 0 (1.0)
|   next1 = i: 0 (709.0/1.0)
|   next1 = j: 0 (31.0)
|   next1 = k: 3 (2.0)
|   next1 = l: 0 (1104.0/19.0)
|   next1 = m: 0 (2311.0/14.0)
|   next1 = n
|   |   next2 = a: 0 (106.0/2.0)
|   |   next2 = b: 0 (0.0)
|   |   next2 = c: 0 (176.0/7.0)
|   |   next2 = d: 0 (168.0/9.0)
|   |   next2 = e: 0 (25.0)
|   |   next2 = f: 0 (117.0)
|   |   next2 = g: 0 (38.0)
|   |   next2 = h: 0 (124.0/1.0)
|   |   next2 = i
|   |   |   next3 = a: 3 (1.0)
|   |   |   next3 = b: 3 (0.0)
|   |   |   next3 = c
|   |   |   |   letter = a: 3 (31.0/1.0)
|   |   |   |   letter = b: 3 (0.0)
|   |   |   |   letter = c: 3 (0.0)
|   |   |   |   letter = d: 3 (0.0)
|   |   |   |   letter = e: 3 (1.0)
|   |   |   |   letter = f: 3 (0.0)
|   |   |   |   letter = g: 3 (0.0)
|   |   |   |   letter = h: 3 (0.0)
|   |   |   |   letter = i: 2 (3.0)
|   |   |   |   letter = j: 3 (0.0)
|   |   |   |   letter = k: 3 (0.0)
|   |   |   |   letter = l: 3 (0.0)
|   |   |   |   letter = m: 3 (0.0)
|   |   |   |   letter = n: 3 (0.0)
|   |   |   |   letter = o: 6 (1.0)
|   |   |   |   letter = p: 3 (0.0)
|   |   |   |   letter = q: 3 (0.0)
|   |   |   |   letter = r: 3 (0.0)
|   |   |   |   letter = s: 3 (0.0)
|   |   |   |   letter = t: 3 (0.0)
|   |   |   |   letter = u: 3 (0.0)
|   |   |   |   letter = v: 3 (0.0)
|   |   |   |   letter = w: 3 (0.0)
|   |   |   |   letter = x: 3 (0.0)
|   |   |   |   letter = y: 3 (0.0)
|   |   |   |   letter = z: 3 (0.0)
|   |   |   |   letter = 0: 3 (0.0)
|   |   |   |   letter = 1: 3 (0.0)
|   |   |   |   letter = 2: 3 (0.0)
|   |   |   |   letter = 3: 3 (0.0)
|   |   |   |   letter = 4: 3 (0.0)
|   |   |   |   letter = 5: 3 (0.0)
|   |   |   |   letter = 6: 3 (0.0)
|   |   |   |   letter = 7: 3 (0.0)
|   |   |   |   letter = 8: 3 (0.0)
|   |   |   |   letter = 9: 3 (0.0)
|   |   |   |   letter = SPACE: 3 (0.0)
|   |   |   |   letter = PERIOD: 3 (0.0)
|   |   |   |   letter = COMMA: 3 (0.0)
|   |   |   |   letter = OTHER: 3 (0.0)
|   |   |   |   letter = BOS: 3 (0.0)
|   |   |   |   letter = EOS: 3 (0.0)
|   |   |   next3 = d: 3 (0.0)
|   |   |   next3 = e: 3 (0.0)
|   |   |   next3 = f: 3 (0.0)
|   |   |   next3 = g: 3 (0.0)
|   |   |   next3 = h: 3 (0.0)
|   |   |   next3 = i: 3 (0.0)
|   |   |   next3 = j: 3 (0.0)
|   |   |   next3 = k: 3 (0.0)
|   |   |   next3 = l: 3 (0.0)
|   |   |   next3 = m: 3 (0.0)
|   |   |   next3 = n: 3 (0.0)
|   |   |   next3 = o: 2 (2.0)
|   |   |   next3 = p: 3 (0.0)
|   |   |   next3 = q: 3 (0.0)
|   |   |   next3 = r: 3 (0.0)
|   |   |   next3 = s: 0 (14.0)
|   |   |   next3 = t: 3 (0.0)
|   |   |   next3 = u: 3 (0.0)
|   |   |   next3 = v: 3 (0.0)
|   |   |   next3 = w: 3 (0.0)
|   |   |   next3 = x: 3 (0.0)
|   |   |   next3 = y: 3 (0.0)
|   |   |   next3 = z: 0 (1.0)
|   |   |   next3 = 0: 3 (0.0)
|   |   |   next3 = 1: 3 (0.0)
|   |   |   next3 = 2: 3 (0.0)
|   |   |   next3 = 3: 3 (0.0)
|   |   |   next3 = 4: 3 (0.0)
|   |   |   next3 = 5: 3 (0.0)
|   |   |   next3 = 6: 3 (0.0)
|   |   |   next3 = 7: 3 (0.0)
|   |   |   next3 = 8: 3 (0.0)
|   |   |   next3 = 9: 3 (0.0)
|   |   |   next3 = SPACE: 3 (0.0)
|   |   |   next3 = PERIOD: 3 (0.0)
|   |   |   next3 = COMMA: 3 (0.0)
|   |   |   next3 = OTHER: 3 (0.0)
|   |   |   next3 = BOS: 3 (0.0)
|   |   |   next3 = EOS: 3 (0.0)
|   |   next2 = j: 0 (23.0)
|   |   next2 = k: 0 (0.0)
|   |   next2 = l: 0 (0.0)
|   |   next2 = m: 0 (0.0)
|   |   next2 = n: 0 (0.0)
|   |   next2 = o: 0 (197.0)
|   |   next2 = p: 0 (0.0)
|   |   next2 = q: 0 (36.0)
|   |   next2 = r: 0 (0.0)
|   |   next2 = s: 0 (422.0/1.0)
|   |   next2 = t: 0 (734.0/2.0)
|   |   next2 = u: 0 (0.0)
|   |   next2 = v: 0 (39.0)
|   |   next2 = w: 0 (0.0)
|   |   next2 = x: 0 (0.0)
|   |   next2 = y: 0 (0.0)
|   |   next2 = z: 0 (2.0)
|   |   next2 = 0: 0 (0.0)
|   |   next2 = 1: 0 (0.0)
|   |   next2 = 2: 0 (0.0)
|   |   next2 = 3: 0 (0.0)
|   |   next2 = 4: 0 (0.0)
|   |   next2 = 5: 0 (0.0)
|   |   next2 = 6: 0 (0.0)
|   |   next2 = 7: 0 (0.0)
|   |   next2 = 8: 0 (0.0)
|   |   next2 = 9: 0 (0.0)
|   |   next2 = SPACE: 0 (2.0)
|   |   next2 = PERIOD: 0 (0.0)
|   |   next2 = COMMA: 0 (4.0/2.0)
|   |   next2 = OTHER: 0 (0.0)
|   |   next2 = BOS: 0 (0.0)
|   |   next2 = EOS: 0 (0.0)
|   next1 = o
|   |   letter = a: 4 (1533.0/5.0)
|   |   letter = b: 4 (0.0)
|   |   letter = c: 5 (13.0)
|   |   letter = d: 4 (0.0)
|   |   letter = e: 0 (3.0)
|   |   letter = f: 4 (0.0)
|   |   letter = g: 4 (0.0)
|   |   letter = h: 0 (31.0)
|   |   letter = i: 0 (534.0)
|   |   letter = j: 4 (0.0)
|   |   letter = k: 4 (0.0)
|   |   letter = l: 0 (41.0)
|   |   letter = m: 4 (0.0)
|   |   letter = n: 0 (28.0)
|   |   letter = o: 0 (25.0)
|   |   letter = p: 4 (0.0)
|   |   letter = q: 4 (0.0)
|   |   letter = r: 0 (29.0)
|   |   letter = s: 0 (2.0)
|   |   letter = t: 0 (68.0)
|   |   letter = u: 0 (2.0)
|   |   letter = v: 4 (0.0)
|   |   letter = w: 4 (0.0)
|   |   letter = x: 4 (0.0)
|   |   letter = y: 4 (0.0)
|   |   letter = z: 4 (0.0)
|   |   letter = 0: 4 (0.0)
|   |   letter = 1: 4 (0.0)
|   |   letter = 2: 4 (0.0)
|   |   letter = 3: 4 (0.0)
|   |   letter = 4: 4 (0.0)
|   |   letter = 5: 4 (0.0)
|   |   letter = 6: 4 (0.0)
|   |   letter = 7: 4 (0.0)
|   |   letter = 8: 4 (0.0)
|   |   letter = 9: 4 (0.0)
|   |   letter = SPACE: 0 (2.0)
|   |   letter = PERIOD: 0 (4.0)
|   |   letter = COMMA: 4 (0.0)
|   |   letter = OTHER: 4 (0.0)
|   |   letter = BOS: 4 (0.0)
|   |   letter = EOS: 4 (0.0)
|   next1 = p
|   |   next3 = a: 0 (18.0/1.0)
|   |   next3 = b: 0 (0.0)
|   |   next3 = c: 0 (38.0)
|   |   next3 = d: 0 (12.0)
|   |   next3 = e: 0 (4.0/1.0)
|   |   next3 = f: 0 (0.0)
|   |   next3 = g: 0 (0.0)
|   |   next3 = h: 0 (0.0)
|   |   next3 = i: 0 (59.0/2.0)
|   |   next3 = j: 0 (0.0)
|   |   next3 = k: 0 (0.0)
|   |   next3 = l: 0 (82.0)
|   |   next3 = m: 0 (0.0)
|   |   next3 = n: 0 (8.0)
|   |   next3 = o
|   |   |   next2 = a: 2 (0.0)
|   |   |   next2 = b: 2 (0.0)
|   |   |   next2 = c: 0 (6.0)
|   |   |   next2 = d: 2 (0.0)
|   |   |   next2 = e: 2 (0.0)
|   |   |   next2 = f: 2 (0.0)
|   |   |   next2 = g: 2 (0.0)
|   |   |   next2 = h: 2 (0.0)
|   |   |   next2 = i: 2 (46.0/1.0)
|   |   |   next2 = j: 6 (1.0)
|   |   |   next2 = k: 2 (0.0)
|   |   |   next2 = l: 2 (0.0)
|   |   |   next2 = m: 2 (0.0)
|   |   |   next2 = n: 2 (0.0)
|   |   |   next2 = o: 2 (0.0)
|   |   |   next2 = p: 2 (0.0)
|   |   |   next2 = q: 2 (0.0)
|   |   |   next2 = r: 0 (3.0/1.0)
|   |   |   next2 = s: 2 (0.0)
|   |   |   next2 = t: 0 (2.0)
|   |   |   next2 = u: 2 (0.0)
|   |   |   next2 = v: 2 (0.0)
|   |   |   next2 = w: 2 (0.0)
|   |   |   next2 = x: 2 (0.0)
|   |   |   next2 = y: 2 (0.0)
|   |   |   next2 = z: 2 (0.0)
|   |   |   next2 = 0: 2 (0.0)
|   |   |   next2 = 1: 2 (0.0)
|   |   |   next2 = 2: 2 (0.0)
|   |   |   next2 = 3: 2 (0.0)
|   |   |   next2 = 4: 2 (0.0)
|   |   |   next2 = 5: 2 (0.0)
|   |   |   next2 = 6: 2 (0.0)
|   |   |   next2 = 7: 2 (0.0)
|   |   |   next2 = 8: 2 (0.0)
|   |   |   next2 = 9: 2 (0.0)
|   |   |   next2 = SPACE: 2 (0.0)
|   |   |   next2 = PERIOD: 2 (0.0)
|   |   |   next2 = COMMA: 2 (0.0)
|   |   |   next2 = OTHER: 2 (0.0)
|   |   |   next2 = BOS: 2 (0.0)
|   |   |   next2 = EOS: 2 (0.0)
|   |   next3 = p: 0 (0.0)
|   |   next3 = q: 0 (0.0)
|   |   next3 = r: 0 (18.0)
|   |   next3 = s: 0 (3.0)
|   |   next3 = t: 0 (105.0)
|   |   next3 = u: 0 (11.0)
|   |   next3 = v: 0 (1.0)
|   |   next3 = w: 0 (0.0)
|   |   next3 = x: 0 (0.0)
|   |   next3 = y: 0 (0.0)
|   |   next3 = z: 0 (10.0)
|   |   next3 = 0: 0 (0.0)
|   |   next3 = 1: 6 (1.0)
|   |   next3 = 2: 0 (0.0)
|   |   next3 = 3: 0 (0.0)
|   |   next3 = 4: 0 (0.0)
|   |   next3 = 5: 0 (0.0)
|   |   next3 = 6: 0 (0.0)
|   |   next3 = 7: 0 (0.0)
|   |   next3 = 8: 0 (0.0)
|   |   next3 = 9: 0 (0.0)
|   |   next3 = SPACE: 0 (18.0/1.0)
|   |   next3 = PERIOD: 0 (1.0)
|   |   next3 = COMMA: 0 (2.0/1.0)
|   |   next3 = OTHER: 0 (2.0)
|   |   next3 = BOS: 0 (0.0)
|   |   next3 = EOS: 0 (0.0)
|   next1 = q: 0 (1.0)
|   next1 = r: 0 (1026.0/17.0)
|   next1 = s: 0 (1302.0/29.0)
|   next1 = t
|   |   next2 = a: 0 (62.0)
|   |   next2 = b: 0 (0.0)
|   |   next2 = c: 0 (0.0)
|   |   next2 = d: 0 (0.0)
|   |   next2 = e: 0 (8.0)
|   |   next2 = f: 0 (0.0)
|   |   next2 = g: 0 (0.0)
|   |   next2 = h: 0 (0.0)
|   |   next2 = i: 0 (60.0/2.0)
|   |   next2 = j: 0 (0.0)
|   |   next2 = k: 0 (0.0)
|   |   next2 = l: 0 (0.0)
|   |   next2 = m: 0 (0.0)
|   |   next2 = n: 0 (0.0)
|   |   next2 = o: 0 (83.0)
|   |   next2 = p: 0 (0.0)
|   |   next2 = q: 0 (0.0)
|   |   next2 = r
|   |   |   next3 = a: 0 (2.0)
|   |   |   next3 = b: 0 (0.0)
|   |   |   next3 = c: 0 (0.0)
|   |   |   next3 = d: 0 (0.0)
|   |   |   next3 = e: 0 (0.0)
|   |   |   next3 = f: 0 (0.0)
|   |   |   next3 = g: 0 (0.0)
|   |   |   next3 = h: 0 (0.0)
|   |   |   next3 = i: 2 (3.0/1.0)
|   |   |   next3 = j: 0 (0.0)
|   |   |   next3 = k: 0 (0.0)
|   |   |   next3 = l: 0 (0.0)
|   |   |   next3 = m: 0 (0.0)
|   |   |   next3 = n: 0 (0.0)
|   |   |   next3 = o: 0 (0.0)
|   |   |   next3 = p: 0 (0.0)
|   |   |   next3 = q: 0 (0.0)
|   |   |   next3 = r: 0 (0.0)
|   |   |   next3 = s: 0 (0.0)
|   |   |   next3 = t: 0 (0.0)
|   |   |   next3 = u: 0 (0.0)
|   |   |   next3 = v: 0 (0.0)
|   |   |   next3 = w: 0 (0.0)
|   |   |   next3 = x: 0 (0.0)
|   |   |   next3 = y: 0 (0.0)
|   |   |   next3 = z: 0 (0.0)
|   |   |   next3 = 0: 0 (0.0)
|   |   |   next3 = 1: 0 (0.0)
|   |   |   next3 = 2: 0 (0.0)
|   |   |   next3 = 3: 0 (0.0)
|   |   |   next3 = 4: 0 (0.0)
|   |   |   next3 = 5: 0 (0.0)
|   |   |   next3 = 6: 0 (0.0)
|   |   |   next3 = 7: 0 (0.0)
|   |   |   next3 = 8: 0 (0.0)
|   |   |   next3 = 9: 0 (0.0)
|   |   |   next3 = SPACE: 0 (0.0)
|   |   |   next3 = PERIOD: 0 (0.0)
|   |   |   next3 = COMMA: 0 (0.0)
|   |   |   next3 = OTHER: 0 (0.0)
|   |   |   next3 = BOS: 0 (0.0)
|   |   |   next3 = EOS: 0 (0.0)
|   |   next2 = s: 0 (1.0)
|   |   next2 = t: 0 (0.0)
|   |   next2 = u: 0 (6.0)
|   |   next2 = v: 0 (0.0)
|   |   next2 = w: 0 (0.0)
|   |   next2 = x: 0 (0.0)
|   |   next2 = y: 0 (0.0)
|   |   next2 = z: 0 (0.0)
|   |   next2 = 0: 0 (0.0)
|   |   next2 = 1: 0 (0.0)
|   |   next2 = 2: 0 (0.0)
|   |   next2 = 3: 0 (0.0)
|   |   next2 = 4: 0 (0.0)
|   |   next2 = 5: 0 (0.0)
|   |   next2 = 6: 0 (0.0)
|   |   next2 = 7: 0 (0.0)
|   |   next2 = 8: 0 (0.0)
|   |   next2 = 9: 0 (0.0)
|   |   next2 = SPACE: 6 (8.0)
|   |   next2 = PERIOD: 6 (1.0)
|   |   next2 = COMMA: 6 (1.0)
|   |   next2 = OTHER: 6 (2.0)
|   |   next2 = BOS: 0 (0.0)
|   |   next2 = EOS: 0 (0.0)
|   next1 = u: 0 (461.0/8.0)
|   next1 = v
|   |   next2 = a: 0 (36.0)
|   |   next2 = b: 0 (0.0)
|   |   next2 = c: 0 (0.0)
|   |   next2 = d: 0 (0.0)
|   |   next2 = e: 2 (7.0)
|   |   next2 = f: 0 (0.0)
|   |   next2 = g: 0 (0.0)
|   |   next2 = h: 0 (0.0)
|   |   next2 = i: 0 (59.0)
|   |   next2 = j: 0 (0.0)
|   |   next2 = k: 0 (0.0)
|   |   next2 = l: 0 (0.0)
|   |   next2 = m: 0 (0.0)
|   |   next2 = n: 0 (0.0)
|   |   next2 = o: 0 (1.0)
|   |   next2 = p: 0 (0.0)
|   |   next2 = q: 0 (0.0)
|   |   next2 = r: 0 (0.0)
|   |   next2 = s: 0 (0.0)
|   |   next2 = t: 0 (0.0)
|   |   next2 = u: 0 (0.0)
|   |   next2 = v: 0 (0.0)
|   |   next2 = w: 0 (0.0)
|   |   next2 = x: 0 (0.0)
|   |   next2 = y: 0 (0.0)
|   |   next2 = z: 0 (0.0)
|   |   next2 = 0: 0 (0.0)
|   |   next2 = 1: 0 (0.0)
|   |   next2 = 2: 0 (0.0)
|   |   next2 = 3: 0 (0.0)
|   |   next2 = 4: 0 (0.0)
|   |   next2 = 5: 0 (0.0)
|   |   next2 = 6: 0 (0.0)
|   |   next2 = 7: 0 (0.0)
|   |   next2 = 8: 0 (0.0)
|   |   next2 = 9: 0 (0.0)
|   |   next2 = SPACE: 0 (0.0)
|   |   next2 = PERIOD: 0 (0.0)
|   |   next2 = COMMA: 0 (0.0)
|   |   next2 = OTHER: 0 (0.0)
|   |   next2 = BOS: 0 (0.0)
|   |   next2 = EOS: 0 (0.0)
|   next1 = w: 0 (1.0)
|   next1 = x: 0 (40.0)
|   next1 = y: 0 (4.0)
|   next1 = z: 0 (2.0)
|   next1 = 0: 0 (0.0)
|   next1 = 1: 0 (1.0)
|   next1 = 2: 6 (14.0)
|   next1 = 3: 0 (0.0)
|   next1 = 4: 6 (1.0)
|   next1 = 5: 0 (0.0)
|   next1 = 6: 0 (0.0)
|   next1 = 7: 0 (0.0)
|   next1 = 8: 0 (0.0)
|   next1 = 9: 0 (0.0)
|   next1 = SPACE: 0 (1591.0/14.0)
|   next1 = PERIOD: 0 (183.0/2.0)
|   next1 = COMMA
|   |   letter = a: 0 (152.0)
|   |   letter = b: 0 (0.0)
|   |   letter = c: 6 (14.0)
|   |   letter = d: 0 (0.0)
|   |   letter = e: 0 (8.0)
|   |   letter = f: 0 (0.0)
|   |   letter = g: 0 (0.0)
|   |   letter = h: 0 (7.0)
|   |   letter = i: 0 (1.0)
|   |   letter = j: 0 (0.0)
|   |   letter = k: 0 (2.0)
|   |   letter = l: 0 (0.0)
|   |   letter = m: 0 (1.0)
|   |   letter = n: 0 (0.0)
|   |   letter = o: 0 (96.0)
|   |   letter = p: 0 (0.0)
|   |   letter = q: 0 (0.0)
|   |   letter = r: 0 (0.0)
|   |   letter = s: 0 (0.0)
|   |   letter = t: 0 (0.0)
|   |   letter = u: 0 (0.0)
|   |   letter = v: 0 (0.0)
|   |   letter = w: 0 (0.0)
|   |   letter = x: 0 (0.0)
|   |   letter = y: 0 (1.0)
|   |   letter = z: 0 (0.0)
|   |   letter = 0: 0 (0.0)
|   |   letter = 1: 0 (0.0)
|   |   letter = 2: 0 (1.0)
|   |   letter = 3: 0 (0.0)
|   |   letter = 4: 0 (0.0)
|   |   letter = 5: 0 (0.0)
|   |   letter = 6: 0 (0.0)
|   |   letter = 7: 0 (0.0)
|   |   letter = 8: 0 (0.0)
|   |   letter = 9: 0 (0.0)
|   |   letter = SPACE: 0 (0.0)
|   |   letter = PERIOD: 0 (7.0)
|   |   letter = COMMA: 0 (0.0)
|   |   letter = OTHER: 0 (7.0)
|   |   letter = BOS: 0 (0.0)
|   |   letter = EOS: 0 (0.0)
|   next1 = OTHER: 0 (116.0/10.0)
|   next1 = BOS: 0 (0.0)
|   next1 = EOS: 0 (0.0)
prev1 = d
|   next1 = a
|   |   letter = a: 0 (7.0)
|   |   letter = b: 0 (2.0)
|   |   letter = c: 0 (0.0)
|   |   letter = d: 0 (0.0)
|   |   letter = e: 0 (21.0)
|   |   letter = f: 0 (1.0)
|   |   letter = g: 0 (3.0)
|   |   letter = h: 0 (1.0)
|   |   letter = i: 0 (306.0/4.0)
|   |   letter = j: 0 (1.0)
|   |   letter = k: 0 (0.0)
|   |   letter = l: 0 (0.0)
|   |   letter = m: 0 (9.0)
|   |   letter = n: 6 (4.0/1.0)
|   |   letter = o: 0 (1.0)
|   |   letter = p: 6 (15.0)
|   |   letter = q: 0 (0.0)
|   |   letter = r: 0 (44.0)
|   |   letter = s: 0 (0.0)
|   |   letter = t: 0 (0.0)
|   |   letter = u: 0 (99.0)
|   |   letter = v: 0 (0.0)
|   |   letter = w: 0 (2.0)
|   |   letter = x: 0 (0.0)
|   |   letter = y: 0 (0.0)
|   |   letter = z: 0 (1.0)
|   |   letter = 0: 0 (0.0)
|   |   letter = 1: 0 (0.0)
|   |   letter = 2: 0 (0.0)
|   |   letter = 3: 0 (0.0)
|   |   letter = 4: 0 (0.0)
|   |   letter = 5: 0 (0.0)
|   |   letter = 6: 0 (0.0)
|   |   letter = 7: 0 (0.0)
|   |   letter = 8: 0 (0.0)
|   |   letter = 9: 0 (0.0)
|   |   letter = SPACE: 0 (8.0)
|   |   letter = PERIOD: 0 (0.0)
|   |   letter = COMMA: 0 (0.0)
|   |   letter = OTHER: 0 (8.0)
|   |   letter = BOS: 0 (0.0)
|   |   letter = EOS: 0 (0.0)
|   next1 = b: 0 (35.0/1.0)
|   next1 = c
|   |   next3 = a
|   |   |   letter = a: 2 (3.0)
|   |   |   letter = b: 0 (0.0)
|   |   |   letter = c: 0 (0.0)
|   |   |   letter = d: 0 (0.0)
|   |   |   letter = e: 0 (30.0)
|   |   |   letter = f: 0 (0.0)
|   |   |   letter = g: 0 (0.0)
|   |   |   letter = h: 0 (0.0)
|   |   |   letter = i: 0 (2.0)
|   |   |   letter = j: 0 (0.0)
|   |   |   letter = k: 0 (0.0)
|   |   |   letter = l: 0 (0.0)
|   |   |   letter = m: 0 (0.0)
|   |   |   letter = n: 0 (0.0)
|   |   |   letter = o: 0 (0.0)
|   |   |   letter = p: 0 (0.0)
|   |   |   letter = q: 0 (0.0)
|   |   |   letter = r: 0 (0.0)
|   |   |   letter = s: 0 (0.0)
|   |   |   letter = t: 0 (0.0)
|   |   |   letter = u: 0 (0.0)
|   |   |   letter = v: 0 (0.0)
|   |   |   letter = w: 0 (0.0)
|   |   |   letter = x: 0 (0.0)
|   |   |   letter = y: 0 (0.0)
|   |   |   letter = z: 0 (0.0)
|   |   |   letter = 0: 0 (0.0)
|   |   |   letter = 1: 0 (0.0)
|   |   |   letter = 2: 0 (0.0)
|   |   |   letter = 3: 0 (0.0)
|   |   |   letter = 4: 0 (0.0)
|   |   |   letter = 5: 0 (0.0)
|   |   |   letter = 6: 0 (0.0)
|   |   |   letter = 7: 0 (0.0)
|   |   |   letter = 8: 0 (0.0)
|   |   |   letter = 9: 0 (0.0)
|   |   |   letter = SPACE: 0 (1.0)
|   |   |   letter = PERIOD: 0 (0.0)
|   |   |   letter = COMMA: 0 (0.0)
|   |   |   letter = OTHER: 0 (0.0)
|   |   |   letter = BOS: 0 (0.0)
|   |   |   letter = EOS: 0 (0.0)
|   |   next3 = b: 0 (0.0)
|   |   next3 = c: 0 (50.0)
|   |   next3 = d
|   |   |   letter = a: 2 (0.0)
|   |   |   letter = b: 2 (0.0)
|   |   |   letter = c: 2 (0.0)
|   |   |   letter = d: 2 (0.0)
|   |   |   letter = e
|   |   |   |   next2 = a: 2 (51.0/3.0)
|   |   |   |   next2 = b: 2 (0.0)
|   |   |   |   next2 = c: 2 (0.0)
|   |   |   |   next2 = d: 2 (0.0)
|   |   |   |   next2 = e: 2 (0.0)
|   |   |   |   next2 = f: 2 (0.0)
|   |   |   |   next2 = g: 2 (0.0)
|   |   |   |   next2 = h: 2 (0.0)
|   |   |   |   next2 = i: 0 (12.0)
|   |   |   |   next2 = j: 2 (0.0)
|   |   |   |   next2 = k: 2 (0.0)
|   |   |   |   next2 = l: 2 (0.0)
|   |   |   |   next2 = m: 2 (0.0)
|   |   |   |   next2 = n: 2 (0.0)
|   |   |   |   next2 = o: 2 (0.0)
|   |   |   |   next2 = p: 2 (0.0)
|   |   |   |   next2 = q: 2 (0.0)
|   |   |   |   next2 = r: 2 (0.0)
|   |   |   |   next2 = s: 2 (0.0)
|   |   |   |   next2 = t: 2 (0.0)
|   |   |   |   next2 = u: 2 (0.0)
|   |   |   |   next2 = v: 2 (0.0)
|   |   |   |   next2 = w: 2 (0.0)
|   |   |   |   next2 = x: 2 (0.0)
|   |   |   |   next2 = y: 2 (0.0)
|   |   |   |   next2 = z: 2 (0.0)
|   |   |   |   next2 = 0: 2 (0.0)
|   |   |   |   next2 = 1: 2 (0.0)
|   |   |   |   next2 = 2: 2 (0.0)
|   |   |   |   next2 = 3: 2 (0.0)
|   |   |   |   next2 = 4: 2 (0.0)
|   |   |   |   next2 = 5: 2 (0.0)
|   |   |   |   next2 = 6: 2 (0.0)
|   |   |   |   next2 = 7: 2 (0.0)
|   |   |   |   next2 = 8: 2 (0.0)
|   |   |   |   next2 = 9: 2 (0.0)
|   |   |   |   next2 = SPACE: 2 (0.0)
|   |   |   |   next2 = PERIOD: 2 (0.0)
|   |   |   |   next2 = COMMA: 2 (0.0)
|   |   |   |   next2 = OTHER: 2 (0.0)
|   |   |   |   next2 = BOS: 2 (0.0)
|   |   |   |   next2 = EOS: 2 (0.0)
|   |   |   letter = f: 2 (0.0)
|   |   |   letter = g: 2 (0.0)
|   |   |   letter = h: 2 (0.0)
|   |   |   letter = i: 0 (16.0)
|   |   |   letter = j: 2 (0.0)
|   |   |   letter = k: 2 (0.0)
|   |   |   letter = l: 2 (0.0)
|   |   |   letter = m: 2 (0.0)
|   |   |   letter = n: 2 (0.0)
|   |   |   letter = o: 0 (1.0)
|   |   |   letter = p: 2 (0.0)
|   |   |   letter = q: 2 (0.0)
|   |   |   letter = r: 2 (0.0)
|   |   |   letter = s: 2 (0.0)
|   |   |   letter = t: 2 (0.0)
|   |   |   letter = u: 0 (3.0)
|   |   |   letter = v: 2 (0.0)
|   |   |   letter = w: 2 (0.0)
|   |   |   letter = x: 2 (0.0)
|   |   |   letter = y: 2 (0.0)
|   |   |   letter = z: 2 (0.0)
|   |   |   letter = 0: 2 (0.0)
|   |   |   letter = 1: 2 (0.0)
|   |   |   letter = 2: 2 (0.0)
|   |   |   letter = 3: 2 (0.0)
|   |   |   letter = 4: 2 (0.0)
|   |   |   letter = 5: 2 (0.0)
|   |   |   letter = 6: 2 (0.0)
|   |   |   letter = 7: 2 (0.0)
|   |   |   letter = 8: 2 (0.0)
|   |   |   letter = 9: 2 (0.0)
|   |   |   letter = SPACE: 2 (0.0)
|   |   |   letter = PERIOD: 2 (0.0)
|   |   |   letter = COMMA: 2 (0.0)
|   |   |   letter = OTHER: 2 (0.0)
|   |   |   letter = BOS: 2 (0.0)
|   |   |   letter = EOS: 2 (0.0)
|   |   next3 = e: 0 (50.0)
|   |   next3 = f: 0 (0.0)
|   |   next3 = g: 0 (0.0)
|   |   next3 = h: 0 (0.0)
|   |   next3 = i: 0 (24.0/3.0)
|   |   next3 = j: 0 (0.0)
|   |   next3 = k: 0 (0.0)
|   |   next3 = l: 0 (37.0)
|   |   next3 = m: 0 (35.0/1.0)
|   |   next3 = n: 0 (11.0)
|   |   next3 = o: 0 (190.0/2.0)
|   |   next3 = p: 0 (2.0)
|   |   next3 = q: 0 (0.0)
|   |   next3 = r: 0 (24.0)
|   |   next3 = s: 0 (32.0)
|   |   next3 = t: 0 (11.0)
|   |   next3 = u: 0 (1.0)
|   |   next3 = v: 0 (0.0)
|   |   next3 = w: 0 (0.0)
|   |   next3 = x: 0 (0.0)
|   |   next3 = y: 0 (0.0)
|   |   next3 = z: 0 (0.0)
|   |   next3 = 0: 0 (0.0)
|   |   next3 = 1: 0 (0.0)
|   |   next3 = 2: 0 (0.0)
|   |   next3 = 3: 0 (0.0)
|   |   next3 = 4: 0 (0.0)
|   |   next3 = 5: 0 (0.0)
|   |   next3 = 6: 0 (0.0)
|   |   next3 = 7: 0 (0.0)
|   |   next3 = 8: 0 (0.0)
|   |   next3 = 9: 0 (0.0)
|   |   next3 = SPACE: 0 (37.0)
|   |   next3 = PERIOD: 0 (1.0)
|   |   next3 = COMMA: 0 (4.0/1.0)
|   |   next3 = OTHER: 0 (3.0)
|   |   next3 = BOS: 0 (0.0)
|   |   next3 = EOS: 0 (0.0)
|   next1 = d: 0 (1086.0)
|   next1 = e: 0 (89.0/4.0)
|   next1 = f: 0 (220.0/1.0)
|   next1 = g
|   |   prev3 = a: 0 (5.0)
|   |   prev3 = b: 0 (0.0)
|   |   prev3 = c: 0 (2.0)
|   |   prev3 = d: 0 (0.0)
|   |   prev3 = e: 0 (8.0)
|   |   prev3 = f: 0 (0.0)
|   |   prev3 = g: 0 (0.0)
|   |   prev3 = h: 0 (0.0)
|   |   prev3 = i: 2 (30.0/5.0)
|   |   prev3 = j: 0 (0.0)
|   |   prev3 = k: 0 (0.0)
|   |   prev3 = l: 0 (0.0)
|   |   prev3 = m: 0 (0.0)
|   |   prev3 = n: 0 (0.0)
|   |   prev3 = o: 0 (23.0)
|   |   prev3 = p: 0 (5.0)
|   |   prev3 = q: 0 (0.0)
|   |   prev3 = r: 0 (1.0)
|   |   prev3 = s: 0 (2.0/1.0)
|   |   prev3 = t: 0 (1.0)
|   |   prev3 = u: 0 (0.0)
|   |   prev3 = v: 0 (1.0)
|   |   prev3 = w: 0 (0.0)
|   |   prev3 = x: 0 (0.0)
|   |   prev3 = y: 0 (0.0)
|   |   prev3 = z: 0 (0.0)
|   |   prev3 = 0: 0 (0.0)
|   |   prev3 = 1: 0 (0.0)
|   |   prev3 = 2: 0 (0.0)
|   |   prev3 = 3: 0 (0.0)
|   |   prev3 = 4: 0 (0.0)
|   |   prev3 = 5: 0 (0.0)
|   |   prev3 = 6: 0 (0.0)
|   |   prev3 = 7: 0 (0.0)
|   |   prev3 = 8: 0 (0.0)
|   |   prev3 = 9: 0 (0.0)
|   |   prev3 = SPACE: 0 (0.0)
|   |   prev3 = PERIOD: 0 (0.0)
|   |   prev3 = COMMA: 0 (0.0)
|   |   prev3 = OTHER: 0 (0.0)
|   |   prev3 = BOS: 0 (0.0)
|   |   prev3 = EOS: 0 (0.0)
|   next1 = h: 0 (6.0)
|   next1 = i: 0 (331.0)
|   next1 = j: 0 (0.0)
|   next1 = k: 0 (12.0)
|   next1 = l
|   |   letter = a: 0 (13.0)
|   |   letter = b: 0 (0.0)
|   |   letter = c: 0 (0.0)
|   |   letter = d: 0 (0.0)
|   |   letter = e: 0 (114.0/2.0)
|   |   letter = f: 0 (0.0)
|   |   letter = g: 0 (0.0)
|   |   letter = h: 0 (0.0)
|   |   letter = i: 0 (16.0)
|   |   letter = j: 0 (0.0)
|   |   letter = k: 0 (0.0)
|   |   letter = l: 0 (0.0)
|   |   letter = m: 0 (0.0)
|   |   letter = n: 0 (0.0)
|   |   letter = o
|   |   |   prev2 = a: 0 (8.0)
|   |   |   prev2 = b: 2 (0.0)
|   |   |   prev2 = c: 2 (0.0)
|   |   |   prev2 = d: 2 (0.0)
|   |   |   prev2 = e: 2 (0.0)
|   |   |   prev2 = f: 2 (0.0)
|   |   |   prev2 = g: 2 (0.0)
|   |   |   prev2 = h: 2 (0.0)
|   |   |   prev2 = i: 0 (2.0/1.0)
|   |   |   prev2 = j: 2 (0.0)
|   |   |   prev2 = k: 2 (0.0)
|   |   |   prev2 = l: 2 (0.0)
|   |   |   prev2 = m: 2 (0.0)
|   |   |   prev2 = n: 2 (0.0)
|   |   |   prev2 = o: 0 (3.0)
|   |   |   prev2 = p: 2 (0.0)
|   |   |   prev2 = q: 2 (0.0)
|   |   |   prev2 = r: 2 (0.0)
|   |   |   prev2 = s: 2 (0.0)
|   |   |   prev2 = t: 2 (0.0)
|   |   |   prev2 = u: 0 (3.0)
|   |   |   prev2 = v: 2 (0.0)
|   |   |   prev2 = w: 2 (0.0)
|   |   |   prev2 = x: 2 (0.0)
|   |   |   prev2 = y: 2 (0.0)
|   |   |   prev2 = z: 2 (0.0)
|   |   |   prev2 = 0: 2 (0.0)
|   |   |   prev2 = 1: 2 (0.0)
|   |   |   prev2 = 2: 2 (0.0)
|   |   |   prev2 = 3: 2 (0.0)
|   |   |   prev2 = 4: 2 (0.0)
|   |   |   prev2 = 5: 2 (0.0)
|   |   |   prev2 = 6: 2 (0.0)
|   |   |   prev2 = 7: 2 (0.0)
|   |   |   prev2 = 8: 2 (0.0)
|   |   |   prev2 = 9: 2 (0.0)
|   |   |   prev2 = SPACE: 2 (16.0)
|   |   |   prev2 = PERIOD: 2 (0.0)
|   |   |   prev2 = COMMA: 2 (0.0)
|   |   |   prev2 = OTHER: 2 (0.0)
|   |   |   prev2 = BOS: 2 (0.0)
|   |   |   prev2 = EOS: 2 (0.0)
|   |   letter = p: 0 (0.0)
|   |   letter = q: 0 (0.0)
|   |   letter = r: 0 (0.0)
|   |   letter = s: 0 (0.0)
|   |   letter = t: 0 (0.0)
|   |   letter = u: 0 (15.0)
|   |   letter = v: 0 (0.0)
|   |   letter = w: 0 (0.0)
|   |   letter = x: 0 (0.0)
|   |   letter = y: 0 (0.0)
|   |   letter = z: 0 (0.0)
|   |   letter = 0: 0 (0.0)
|   |   letter = 1: 0 (0.0)
|   |   letter = 2: 0 (0.0)
|   |   letter = 3: 0 (0.0)
|   |   letter = 4: 0 (0.0)
|   |   letter = 5: 0 (0.0)
|   |   letter = 6: 0 (0.0)
|   |   letter = 7: 0 (0.0)
|   |   letter = 8: 0 (0.0)
|   |   letter = 9: 0 (0.0)
|   |   letter = SPACE: 0 (1.0)
|   |   letter = PERIOD: 0 (0.0)
|   |   letter = COMMA: 0 (0.0)
|   |   letter = OTHER: 0 (0.0)
|   |   letter = BOS: 0 (0.0)
|   |   letter = EOS: 0 (0.0)
|   next1 = m: 0 (408.0/3.0)
|   next1 = n
|   |   next3 = a: 0 (125.0/3.0)
|   |   next3 = b: 0 (7.0)
|   |   next3 = c: 0 (4.0)
|   |   next3 = d: 0 (15.0)
|   |   next3 = e: 0 (187.0)
|   |   next3 = f: 0 (2.0)
|   |   next3 = g: 0 (0.0)
|   |   next3 = h: 0 (5.0)
|   |   next3 = i
|   |   |   next2 = a: 3 (0.0)
|   |   |   next2 = b: 3 (0.0)
|   |   |   next2 = c: 3 (127.0/10.0)
|   |   |   next2 = d: 3 (0.0)
|   |   |   next2 = e: 3 (0.0)
|   |   |   next2 = f: 3 (0.0)
|   |   |   next2 = g: 3 (0.0)
|   |   |   next2 = h: 3 (0.0)
|   |   |   next2 = i: 3 (0.0)
|   |   |   next2 = j: 3 (0.0)
|   |   |   next2 = k: 3 (0.0)
|   |   |   next2 = l: 3 (0.0)
|   |   |   next2 = m: 3 (0.0)
|   |   |   next2 = n: 3 (0.0)
|   |   |   next2 = o: 3 (0.0)
|   |   |   next2 = p: 3 (0.0)
|   |   |   next2 = q: 3 (0.0)
|   |   |   next2 = r: 3 (0.0)
|   |   |   next2 = s: 0 (9.0)
|   |   |   next2 = t: 0 (15.0/1.0)
|   |   |   next2 = u: 3 (0.0)
|   |   |   next2 = v: 3 (0.0)
|   |   |   next2 = w: 3 (0.0)
|   |   |   next2 = x: 3 (0.0)
|   |   |   next2 = y: 3 (0.0)
|   |   |   next2 = z: 3 (0.0)
|   |   |   next2 = 0: 3 (0.0)
|   |   |   next2 = 1: 3 (0.0)
|   |   |   next2 = 2: 3 (0.0)
|   |   |   next2 = 3: 3 (0.0)
|   |   |   next2 = 4: 3 (0.0)
|   |   |   next2 = 5: 3 (0.0)
|   |   |   next2 = 6: 3 (0.0)
|   |   |   next2 = 7: 3 (0.0)
|   |   |   next2 = 8: 3 (0.0)
|   |   |   next2 = 9: 3 (0.0)
|   |   |   next2 = SPACE: 0 (1.0)
|   |   |   next2 = PERIOD: 3 (0.0)
|   |   |   next2 = COMMA: 3 (0.0)
|   |   |   next2 = OTHER: 3 (0.0)
|   |   |   next2 = BOS: 3 (0.0)
|   |   |   next2 = EOS: 3 (0.0)
|   |   next3 = j: 0 (2.0)
|   |   next3 = k: 0 (2.0)
|   |   next3 = l: 0 (0.0)
|   |   next3 = m: 0 (33.0)
|   |   next3 = n: 0 (11.0)
|   |   next3 = o: 0 (48.0)
|   |   next3 = p: 0 (2.0)
|   |   next3 = q: 0 (0.0)
|   |   next3 = r: 0 (33.0)
|   |   next3 = s: 0 (21.0)
|   |   next3 = t: 0 (6.0)
|   |   next3 = u
|   |   |   next2 = a: 0 (0.0)
|   |   |   next2 = b: 0 (0.0)
|   |   |   next2 = c: 2 (2.0)
|   |   |   next2 = d: 0 (0.0)
|   |   |   next2 = e: 0 (0.0)
|   |   |   next2 = f: 0 (0.0)
|   |   |   next2 = g: 0 (0.0)
|   |   |   next2 = h: 0 (0.0)
|   |   |   next2 = i: 0 (0.0)
|   |   |   next2 = j: 0 (0.0)
|   |   |   next2 = k: 0 (0.0)
|   |   |   next2 = l: 0 (0.0)
|   |   |   next2 = m: 0 (0.0)
|   |   |   next2 = n: 0 (0.0)
|   |   |   next2 = o: 0 (9.0)
|   |   |   next2 = p: 0 (0.0)
|   |   |   next2 = q: 0 (0.0)
|   |   |   next2 = r: 0 (0.0)
|   |   |   next2 = s: 0 (0.0)
|   |   |   next2 = t: 0 (0.0)
|   |   |   next2 = u: 0 (0.0)
|   |   |   next2 = v: 0 (0.0)
|   |   |   next2 = w: 0 (0.0)
|   |   |   next2 = x: 0 (0.0)
|   |   |   next2 = y: 0 (0.0)
|   |   |   next2 = z: 0 (0.0)
|   |   |   next2 = 0: 0 (0.0)
|   |   |   next2 = 1: 0 (0.0)
|   |   |   next2 = 2: 0 (0.0)
|   |   |   next2 = 3: 0 (0.0)
|   |   |   next2 = 4: 0 (0.0)
|   |   |   next2 = 5: 0 (0.0)
|   |   |   next2 = 6: 0 (0.0)
|   |   |   next2 = 7: 0 (0.0)
|   |   |   next2 = 8: 0 (0.0)
|   |   |   next2 = 9: 0 (0.0)
|   |   |   next2 = SPACE: 0 (0.0)
|   |   |   next2 = PERIOD: 0 (0.0)
|   |   |   next2 = COMMA: 0 (0.0)
|   |   |   next2 = OTHER: 0 (0.0)
|   |   |   next2 = BOS: 0 (0.0)
|   |   |   next2 = EOS: 0 (0.0)
|   |   next3 = v: 0 (4.0)
|   |   next3 = w: 0 (1.0)
|   |   next3 = x: 0 (0.0)
|   |   next3 = y: 0 (0.0)
|   |   next3 = z: 0 (0.0)
|   |   next3 = 0: 0 (0.0)
|   |   next3 = 1: 0 (0.0)
|   |   next3 = 2: 0 (0.0)
|   |   next3 = 3: 0 (0.0)
|   |   next3 = 4: 0 (0.0)
|   |   next3 = 5: 0 (0.0)
|   |   next3 = 6: 0 (0.0)
|   |   next3 = 7: 0 (0.0)
|   |   next3 = 8: 0 (0.0)
|   |   next3 = 9: 0 (0.0)
|   |   next3 = SPACE: 0 (18.0)
|   |   next3 = PERIOD: 0 (2.0)
|   |   next3 = COMMA: 0 (2.0)
|   |   next3 = OTHER: 2 (1.0)
|   |   next3 = BOS: 0 (0.0)
|   |   next3 = EOS: 0 (0.0)
|   next1 = o
|   |   letter = a
|   |   |   next2 = a: 4 (0.0)
|   |   |   next2 = b: 4 (0.0)
|   |   |   next2 = c: 4 (0.0)
|   |   |   next2 = d: 4 (0.0)
|   |   |   next2 = e: 4 (0.0)
|   |   |   next2 = f: 4 (0.0)
|   |   |   next2 = g: 4 (0.0)
|   |   |   next2 = h: 4 (0.0)
|   |   |   next2 = i: 4 (0.0)
|   |   |   next2 = j: 4 (0.0)
|   |   |   next2 = k: 4 (0.0)
|   |   |   next2 = l: 4 (0.0)
|   |   |   next2 = m: 4 (0.0)
|   |   |   next2 = n: 4 (0.0)
|   |   |   next2 = o: 4 (0.0)
|   |   |   next2 = p: 4 (0.0)
|   |   |   next2 = q: 4 (0.0)
|   |   |   next2 = r: 4 (0.0)
|   |   |   next2 = s: 4 (6.0)
|   |   |   next2 = t: 4 (0.0)
|   |   |   next2 = u: 0 (6.0)
|   |   |   next2 = v: 4 (0.0)
|   |   |   next2 = w: 4 (0.0)
|   |   |   next2 = x: 4 (0.0)
|   |   |   next2 = y: 4 (0.0)
|   |   |   next2 = z: 4 (0.0)
|   |   |   next2 = 0: 4 (0.0)
|   |   |   next2 = 1: 4 (0.0)
|   |   |   next2 = 2: 4 (0.0)
|   |   |   next2 = 3: 4 (0.0)
|   |   |   next2 = 4: 4 (0.0)
|   |   |   next2 = 5: 4 (0.0)
|   |   |   next2 = 6: 4 (0.0)
|   |   |   next2 = 7: 4 (0.0)
|   |   |   next2 = 8: 4 (0.0)
|   |   |   next2 = 9: 4 (0.0)
|   |   |   next2 = SPACE: 4 (14.0)
|   |   |   next2 = PERIOD: 4 (3.0)
|   |   |   next2 = COMMA: 4 (4.0)
|   |   |   next2 = OTHER: 4 (1.0)
|   |   |   next2 = BOS: 4 (0.0)
|   |   |   next2 = EOS: 4 (0.0)
|   |   letter = b: 0 (0.0)
|   |   letter = c: 0 (0.0)
|   |   letter = d: 0 (0.0)
|   |   letter = e: 0 (18.0)
|   |   letter = f: 0 (0.0)
|   |   letter = g: 0 (0.0)
|   |   letter = h: 0 (9.0)
|   |   letter = i: 0 (104.0)
|   |   letter = j: 0 (0.0)
|   |   letter = k: 0 (0.0)
|   |   letter = l: 0 (0.0)
|   |   letter = m: 0 (0.0)
|   |   letter = n: 0 (0.0)
|   |   letter = o: 0 (1.0)
|   |   letter = p: 0 (0.0)
|   |   letter = q: 0 (0.0)
|   |   letter = r: 0 (47.0)
|   |   letter = s: 0 (0.0)
|   |   letter = t: 0 (0.0)
|   |   letter = u: 0 (26.0)
|   |   letter = v: 0 (11.0)
|   |   letter = w: 0 (0.0)
|   |   letter = x: 0 (0.0)
|   |   letter = y: 0 (0.0)
|   |   letter = z: 0 (0.0)
|   |   letter = 0: 0 (0.0)
|   |   letter = 1: 0 (0.0)
|   |   letter = 2: 0 (0.0)
|   |   letter = 3: 0 (0.0)
|   |   letter = 4: 0 (0.0)
|   |   letter = 5: 0 (0.0)
|   |   letter = 6: 0 (0.0)
|   |   letter = 7: 0 (0.0)
|   |   letter = 8: 0 (0.0)
|   |   letter = 9: 0 (0.0)
|   |   letter = SPACE: 0 (3.0)
|   |   letter = PERIOD: 0 (0.0)
|   |   letter = COMMA: 0 (0.0)
|   |   letter = OTHER: 0 (0.0)
|   |   letter = BOS: 0 (0.0)
|   |   letter = EOS: 0 (0.0)
|   next1 = p: 0 (230.0)
|   next1 = q: 0 (20.0)
|   next1 = r
|   |   letter = a
|   |   |   next2 = a: 0 (16.0)
|   |   |   next2 = b: 0 (0.0)
|   |   |   next2 = c: 0 (0.0)
|   |   |   next2 = d: 0 (0.0)
|   |   |   next2 = e: 0 (1.0)
|   |   |   next2 = f: 0 (0.0)
|   |   |   next2 = g: 0 (0.0)
|   |   |   next2 = h: 0 (0.0)
|   |   |   next2 = i
|   |   |   |   next3 = a: 2 (16.0/6.0)
|   |   |   |   next3 = b: 2 (0.0)
|   |   |   |   next3 = c: 2 (0.0)
|   |   |   |   next3 = d: 2 (0.0)
|   |   |   |   next3 = e: 0 (8.0)
|   |   |   |   next3 = f: 2 (0.0)
|   |   |   |   next3 = g: 2 (0.0)
|   |   |   |   next3 = h: 2 (0.0)
|   |   |   |   next3 = i: 2 (0.0)
|   |   |   |   next3 = j: 2 (0.0)
|   |   |   |   next3 = k: 2 (0.0)
|   |   |   |   next3 = l: 2 (0.0)
|   |   |   |   next3 = m: 2 (0.0)
|   |   |   |   next3 = n: 2 (0.0)
|   |   |   |   next3 = o: 2 (22.0)
|   |   |   |   next3 = p: 2 (0.0)
|   |   |   |   next3 = q: 2 (0.0)
|   |   |   |   next3 = r: 2 (0.0)
|   |   |   |   next3 = s: 2 (0.0)
|   |   |   |   next3 = t: 0 (3.0)
|   |   |   |   next3 = u: 2 (0.0)
|   |   |   |   next3 = v: 2 (0.0)
|   |   |   |   next3 = w: 2 (0.0)
|   |   |   |   next3 = x: 2 (0.0)
|   |   |   |   next3 = y: 2 (0.0)
|   |   |   |   next3 = z: 2 (0.0)
|   |   |   |   next3 = 0: 2 (0.0)
|   |   |   |   next3 = 1: 2 (0.0)
|   |   |   |   next3 = 2: 2 (0.0)
|   |   |   |   next3 = 3: 2 (0.0)
|   |   |   |   next3 = 4: 2 (0.0)
|   |   |   |   next3 = 5: 2 (0.0)
|   |   |   |   next3 = 6: 2 (0.0)
|   |   |   |   next3 = 7: 2 (0.0)
|   |   |   |   next3 = 8: 2 (0.0)
|   |   |   |   next3 = 9: 2 (0.0)
|   |   |   |   next3 = SPACE: 2 (0.0)
|   |   |   |   next3 = PERIOD: 2 (0.0)
|   |   |   |   next3 = COMMA: 2 (0.0)
|   |   |   |   next3 = OTHER: 2 (0.0)
|   |   |   |   next3 = BOS: 2 (0.0)
|   |   |   |   next3 = EOS: 2 (0.0)
|   |   |   next2 = j: 0 (0.0)
|   |   |   next2 = k: 0 (0.0)
|   |   |   next2 = l: 0 (0.0)
|   |   |   next2 = m: 0 (0.0)
|   |   |   next2 = n: 0 (0.0)
|   |   |   next2 = o: 0 (0.0)
|   |   |   next2 = p: 0 (0.0)
|   |   |   next2 = q: 0 (0.0)
|   |   |   next2 = r: 0 (0.0)
|   |   |   next2 = s: 0 (0.0)
|   |   |   next2 = t: 0 (0.0)
|   |   |   next2 = u: 0 (0.0)
|   |   |   next2 = v: 0 (0.0)
|   |   |   next2 = w: 0 (9.0)
|   |   |   next2 = x: 0 (0.0)
|   |   |   next2 = y: 0 (0.0)
|   |   |   next2 = z: 0 (0.0)
|   |   |   next2 = 0: 0 (0.0)
|   |   |   next2 = 1: 0 (0.0)
|   |   |   next2 = 2: 0 (0.0)
|   |   |   next2 = 3: 0 (0.0)
|   |   |   next2 = 4: 0 (0.0)
|   |   |   next2 = 5: 0 (0.0)
|   |   |   next2 = 6: 0 (0.0)
|   |   |   next2 = 7: 0 (0.0)
|   |   |   next2 = 8: 0 (0.0)
|   |   |   next2 = 9: 0 (0.0)
|   |   |   next2 = SPACE: 0 (35.0)
|   |   |   next2 = PERIOD: 0 (1.0)
|   |   |   next2 = COMMA: 0 (3.0)
|   |   |   next2 = OTHER: 0 (3.0)
|   |   |   next2 = BOS: 0 (0.0)
|   |   |   next2 = EOS: 0 (0.0)
|   |   letter = b: 0 (0.0)
|   |   letter = c: 0 (0.0)
|   |   letter = d: 0 (0.0)
|   |   letter = e: 0 (466.0/1.0)
|   |   letter = f: 0 (0.0)
|   |   letter = g: 0 (0.0)
|   |   letter = h: 0 (0.0)
|   |   letter = i: 0 (158.0)
|   |   letter = j: 0 (0.0)
|   |   letter = k: 0 (0.0)
|   |   letter = l: 0 (0.0)
|   |   letter = m: 0 (0.0)
|   |   letter = n: 0 (0.0)
|   |   letter = o: 0 (285.0)
|   |   letter = p: 0 (0.0)
|   |   letter = q: 0 (0.0)
|   |   letter = r: 0 (0.0)
|   |   letter = s: 0 (0.0)
|   |   letter = t: 0 (0.0)
|   |   letter = u: 0 (161.0)
|   |   letter = v: 0 (0.0)
|   |   letter = w: 0 (0.0)
|   |   letter = x: 0 (0.0)
|   |   letter = y: 0 (0.0)
|   |   letter = z: 0 (0.0)
|   |   letter = 0: 0 (0.0)
|   |   letter = 1: 0 (0.0)
|   |   letter = 2: 0 (0.0)
|   |   letter = 3: 0 (0.0)
|   |   letter = 4: 0 (0.0)
|   |   letter = 5: 0 (0.0)
|   |   letter = 6: 0 (0.0)
|   |   letter = 7: 0 (0.0)
|   |   letter = 8: 0 (0.0)
|   |   letter = 9: 0 (0.0)
|   |   letter = SPACE: 0 (5.0)
|   |   letter = PERIOD: 0 (0.0)
|   |   letter = COMMA: 0 (0.0)
|   |   letter = OTHER: 0 (0.0)
|   |   letter = BOS: 0 (0.0)
|   |   letter = EOS: 0 (0.0)
|   next1 = s: 0 (3581.0/23.0)
|   next1 = t: 0 (293.0/2.0)
|   next1 = u: 0 (162.0/3.0)
|   next1 = v
|   |   letter = a
|   |   |   next2 = a: 0 (7.0)
|   |   |   next2 = b: 0 (0.0)
|   |   |   next2 = c: 0 (0.0)
|   |   |   next2 = d: 0 (0.0)
|   |   |   next2 = e: 2 (2.0)
|   |   |   next2 = f: 0 (0.0)
|   |   |   next2 = g: 0 (0.0)
|   |   |   next2 = h: 0 (0.0)
|   |   |   next2 = i: 0 (14.0)
|   |   |   next2 = j: 0 (0.0)
|   |   |   next2 = k: 0 (0.0)
|   |   |   next2 = l: 0 (0.0)
|   |   |   next2 = m: 0 (0.0)
|   |   |   next2 = n: 0 (0.0)
|   |   |   next2 = o: 0 (0.0)
|   |   |   next2 = p: 0 (0.0)
|   |   |   next2 = q: 0 (0.0)
|   |   |   next2 = r: 0 (0.0)
|   |   |   next2 = s: 0 (0.0)
|   |   |   next2 = t: 0 (0.0)
|   |   |   next2 = u: 0 (0.0)
|   |   |   next2 = v: 0 (0.0)
|   |   |   next2 = w: 0 (0.0)
|   |   |   next2 = x: 0 (0.0)
|   |   |   next2 = y: 0 (0.0)
|   |   |   next2 = z: 0 (0.0)
|   |   |   next2 = 0: 0 (0.0)
|   |   |   next2 = 1: 0 (0.0)
|   |   |   next2 = 2: 0 (0.0)
|   |   |   next2 = 3: 0 (0.0)
|   |   |   next2 = 4: 0 (0.0)
|   |   |   next2 = 5: 0 (0.0)
|   |   |   next2 = 6: 0 (0.0)
|   |   |   next2 = 7: 0 (0.0)
|   |   |   next2 = 8: 0 (0.0)
|   |   |   next2 = 9: 0 (0.0)
|   |   |   next2 = SPACE: 0 (0.0)
|   |   |   next2 = PERIOD: 0 (0.0)
|   |   |   next2 = COMMA: 0 (0.0)
|   |   |   next2 = OTHER: 0 (0.0)
|   |   |   next2 = BOS: 0 (0.0)
|   |   |   next2 = EOS: 0 (0.0)
|   |   letter = b: 0 (0.0)
|   |   letter = c: 0 (0.0)
|   |   letter = d: 0 (0.0)
|   |   letter = e: 0 (138.0)
|   |   letter = f: 0 (0.0)
|   |   letter = g: 0 (0.0)
|   |   letter = h: 0 (0.0)
|   |   letter = i: 0 (197.0/9.0)
|   |   letter = j: 0 (0.0)
|   |   letter = k: 0 (0.0)
|   |   letter = l: 0 (0.0)
|   |   letter = m: 0 (0.0)
|   |   letter = n: 0 (0.0)
|   |   letter = o: 0 (4.0)
|   |   letter = p: 0 (0.0)
|   |   letter = q: 0 (0.0)
|   |   letter = r: 0 (0.0)
|   |   letter = s: 0 (0.0)
|   |   letter = t: 0 (0.0)
|   |   letter = u: 2 (10.0/2.0)
|   |   letter = v: 0 (0.0)
|   |   letter = w: 0 (0.0)
|   |   letter = x: 0 (0.0)
|   |   letter = y: 0 (0.0)
|   |   letter = z: 0 (0.0)
|   |   letter = 0: 0 (0.0)
|   |   letter = 1: 0 (0.0)
|   |   letter = 2: 0 (0.0)
|   |   letter = 3: 0 (0.0)
|   |   letter = 4: 0 (0.0)
|   |   letter = 5: 0 (0.0)
|   |   letter = 6: 0 (0.0)
|   |   letter = 7: 0 (0.0)
|   |   letter = 8: 0 (0.0)
|   |   letter = 9: 0 (0.0)
|   |   letter = SPACE: 0 (1.0)
|   |   letter = PERIOD: 0 (0.0)
|   |   letter = COMMA: 0 (0.0)
|   |   letter = OTHER: 0 (0.0)
|   |   letter = BOS: 0 (0.0)
|   |   letter = EOS: 0 (0.0)
|   next1 = w: 0 (0.0)
|   next1 = x: 0 (4.0)
|   next1 = y: 0 (0.0)
|   next1 = z: 0 (202.0)
|   next1 = 0: 0 (0.0)
|   next1 = 1: 0 (0.0)
|   next1 = 2: 0 (0.0)
|   next1 = 3: 0 (0.0)
|   next1 = 4: 0 (0.0)
|   next1 = 5: 0 (0.0)
|   next1 = 6: 0 (0.0)
|   next1 = 7: 0 (0.0)
|   next1 = 8: 0 (0.0)
|   next1 = 9: 0 (0.0)
|   next1 = SPACE: 0 (11487.0/14.0)
|   next1 = PERIOD: 0 (198.0)
|   next1 = COMMA: 0 (443.0/6.0)
|   next1 = OTHER: 0 (207.0/15.0)
|   next1 = BOS: 0 (0.0)
|   next1 = EOS: 0 (0.0)
prev1 = e
|   letter = a: 0 (448.0/25.0)
|   letter = b: 0 (141.0)
|   letter = c
|   |   next1 = a
|   |   |   prev3 = a
|   |   |   |   prev2 = a: 5 (0.0)
|   |   |   |   prev2 = b: 5 (4.0)
|   |   |   |   prev2 = c: 5 (0.0)
|   |   |   |   prev2 = d: 5 (0.0)
|   |   |   |   prev2 = e: 5 (0.0)
|   |   |   |   prev2 = f: 5 (0.0)
|   |   |   |   prev2 = g: 5 (0.0)
|   |   |   |   prev2 = h: 5 (0.0)
|   |   |   |   prev2 = i: 5 (0.0)
|   |   |   |   prev2 = j: 5 (0.0)
|   |   |   |   prev2 = k: 5 (0.0)
|   |   |   |   prev2 = l: 5 (0.0)
|   |   |   |   prev2 = m: 5 (0.0)
|   |   |   |   prev2 = n: 0 (2.0)
|   |   |   |   prev2 = o: 5 (0.0)
|   |   |   |   prev2 = p: 5 (0.0)
|   |   |   |   prev2 = q: 5 (0.0)
|   |   |   |   prev2 = r: 5 (1.0)
|   |   |   |   prev2 = s: 5 (0.0)
|   |   |   |   prev2 = t: 5 (0.0)
|   |   |   |   prev2 = u: 5 (0.0)
|   |   |   |   prev2 = v: 5 (0.0)
|   |   |   |   prev2 = w: 5 (0.0)
|   |   |   |   prev2 = x: 5 (0.0)
|   |   |   |   prev2 = y: 5 (0.0)
|   |   |   |   prev2 = z: 5 (0.0)
|   |   |   |   prev2 = 0: 5 (0.0)
|   |   |   |   prev2 = 1: 5 (0.0)
|   |   |   |   prev2 = 2: 5 (0.0)
|   |   |   |   prev2 = 3: 5 (0.0)
|   |   |   |   prev2 = 4: 5 (0.0)
|   |   |   |   prev2 = 5: 5 (0.0)
|   |   |   |   prev2 = 6: 5 (0.0)
|   |   |   |   prev2 = 7: 5 (0.0)
|   |   |   |   prev2 = 8: 5 (0.0)
|   |   |   |   prev2 = 9: 5 (0.0)
|   |   |   |   prev2 = SPACE: 5 (0.0)
|   |   |   |   prev2 = PERIOD: 5 (0.0)
|   |   |   |   prev2 = COMMA: 5 (0.0)
|   |   |   |   prev2 = OTHER: 5 (0.0)
|   |   |   |   prev2 = BOS: 5 (0.0)
|   |   |   |   prev2 = EOS: 5 (0.0)
|   |   |   prev3 = b: 5 (1.0)
|   |   |   prev3 = c: 0 (0.0)
|   |   |   prev3 = d: 0 (0.0)
|   |   |   prev3 = e: 5 (11.0)
|   |   |   prev3 = f: 0 (0.0)
|   |   |   prev3 = g: 0 (0.0)
|   |   |   prev3 = h: 0 (0.0)
|   |   |   prev3 = i: 5 (10.0)
|   |   |   prev3 = j: 0 (0.0)
|   |   |   prev3 = k: 0 (0.0)
|   |   |   prev3 = l: 0 (2.0)
|   |   |   prev3 = m: 0 (0.0)
|   |   |   prev3 = n: 5 (4.0)
|   |   |   prev3 = o: 5 (42.0/3.0)
|   |   |   prev3 = p: 0 (1.0)
|   |   |   prev3 = q: 0 (0.0)
|   |   |   prev3 = r: 5 (2.0)
|   |   |   prev3 = s: 0 (4.0)
|   |   |   prev3 = t: 0 (0.0)
|   |   |   prev3 = u: 0 (0.0)
|   |   |   prev3 = v: 0 (0.0)
|   |   |   prev3 = w: 0 (0.0)
|   |   |   prev3 = x: 5 (6.0)
|   |   |   prev3 = y: 0 (0.0)
|   |   |   prev3 = z: 0 (0.0)
|   |   |   prev3 = 0: 0 (0.0)
|   |   |   prev3 = 1: 0 (0.0)
|   |   |   prev3 = 2: 0 (0.0)
|   |   |   prev3 = 3: 0 (0.0)
|   |   |   prev3 = 4: 0 (0.0)
|   |   |   prev3 = 5: 0 (0.0)
|   |   |   prev3 = 6: 0 (0.0)
|   |   |   prev3 = 7: 0 (0.0)
|   |   |   prev3 = 8: 0 (0.0)
|   |   |   prev3 = 9: 0 (0.0)
|   |   |   prev3 = SPACE
|   |   |   |   prev2 = a: 0 (0.0)
|   |   |   |   prev2 = b: 0 (0.0)
|   |   |   |   prev2 = c: 0 (0.0)
|   |   |   |   prev2 = d: 0 (51.0)
|   |   |   |   prev2 = e: 0 (0.0)
|   |   |   |   prev2 = f: 0 (0.0)
|   |   |   |   prev2 = g: 0 (0.0)
|   |   |   |   prev2 = h: 0 (0.0)
|   |   |   |   prev2 = i: 0 (0.0)
|   |   |   |   prev2 = j: 0 (0.0)
|   |   |   |   prev2 = k: 0 (0.0)
|   |   |   |   prev2 = l: 0 (0.0)
|   |   |   |   prev2 = m: 0 (37.0)
|   |   |   |   prev2 = n: 0 (0.0)
|   |   |   |   prev2 = o: 0 (0.0)
|   |   |   |   prev2 = p: 5 (7.0)
|   |   |   |   prev2 = q: 0 (0.0)
|   |   |   |   prev2 = r: 0 (1.0)
|   |   |   |   prev2 = s
|   |   |   |   |   next2 = a: 0 (0.0)
|   |   |   |   |   next2 = b: 0 (0.0)
|   |   |   |   |   next2 = c: 0 (0.0)
|   |   |   |   |   next2 = d: 0 (0.0)
|   |   |   |   |   next2 = e: 0 (0.0)
|   |   |   |   |   next2 = f: 0 (0.0)
|   |   |   |   |   next2 = g: 0 (0.0)
|   |   |   |   |   next2 = h: 0 (0.0)
|   |   |   |   |   next2 = i: 0 (0.0)
|   |   |   |   |   next2 = j: 0 (0.0)
|   |   |   |   |   next2 = k: 0 (0.0)
|   |   |   |   |   next2 = l: 0 (0.0)
|   |   |   |   |   next2 = m: 0 (0.0)
|   |   |   |   |   next2 = n: 0 (0.0)
|   |   |   |   |   next2 = o: 5 (5.0)
|   |   |   |   |   next2 = p: 0 (0.0)
|   |   |   |   |   next2 = q: 0 (0.0)
|   |   |   |   |   next2 = r: 0 (0.0)
|   |   |   |   |   next2 = s: 0 (11.0)
|   |   |   |   |   next2 = t: 0 (0.0)
|   |   |   |   |   next2 = u: 0 (0.0)
|   |   |   |   |   next2 = v: 0 (0.0)
|   |   |   |   |   next2 = w: 0 (0.0)
|   |   |   |   |   next2 = x: 0 (0.0)
|   |   |   |   |   next2 = y: 0 (0.0)
|   |   |   |   |   next2 = z: 0 (0.0)
|   |   |   |   |   next2 = 0: 0 (0.0)
|   |   |   |   |   next2 = 1: 0 (0.0)
|   |   |   |   |   next2 = 2: 0 (0.0)
|   |   |   |   |   next2 = 3: 0 (0.0)
|   |   |   |   |   next2 = 4: 0 (0.0)
|   |   |   |   |   next2 = 5: 0 (0.0)
|   |   |   |   |   next2 = 6: 0 (0.0)
|   |   |   |   |   next2 = 7: 0 (0.0)
|   |   |   |   |   next2 = 8: 0 (0.0)
|   |   |   |   |   next2 = 9: 0 (0.0)
|   |   |   |   |   next2 = SPACE: 0 (4.0)
|   |   |   |   |   next2 = PERIOD: 0 (3.0)
|   |   |   |   |   next2 = COMMA: 0 (3.0)
|   |   |   |   |   next2 = OTHER: 0 (0.0)
|   |   |   |   |   next2 = BOS: 0 (0.0)
|   |   |   |   |   next2 = EOS: 0 (0.0)
|   |   |   |   prev2 = t: 0 (0.0)
|   |   |   |   prev2 = u: 0 (0.0)
|   |   |   |   prev2 = v: 0 (0.0)
|   |   |   |   prev2 = w: 0 (0.0)
|   |   |   |   prev2 = x: 0 (0.0)
|   |   |   |   prev2 = y: 0 (0.0)
|   |   |   |   prev2 = z: 0 (0.0)
|   |   |   |   prev2 = 0: 0 (0.0)
|   |   |   |   prev2 = 1: 0 (0.0)
|   |   |   |   prev2 = 2: 0 (0.0)
|   |   |   |   prev2 = 3: 0 (0.0)
|   |   |   |   prev2 = 4: 0 (0.0)
|   |   |   |   prev2 = 5: 0 (0.0)
|   |   |   |   prev2 = 6: 0 (0.0)
|   |   |   |   prev2 = 7: 0 (0.0)
|   |   |   |   prev2 = 8: 0 (0.0)
|   |   |   |   prev2 = 9: 0 (0.0)
|   |   |   |   prev2 = SPACE: 0 (0.0)
|   |   |   |   prev2 = PERIOD: 0 (0.0)
|   |   |   |   prev2 = COMMA: 0 (0.0)
|   |   |   |   prev2 = OTHER: 0 (0.0)
|   |   |   |   prev2 = BOS: 0 (0.0)
|   |   |   |   prev2 = EOS: 0 (0.0)
|   |   |   prev3 = PERIOD: 0 (0.0)
|   |   |   prev3 = COMMA: 0 (0.0)
|   |   |   prev3 = OTHER: 0 (4.0)
|   |   |   prev3 = BOS: 0 (0.0)
|   |   |   prev3 = EOS: 0 (0.0)
|   |   next1 = b: 0 (0.0)
|   |   next1 = c: 0 (14.0)
|   |   next1 = d: 0 (0.0)
|   |   next1 = e: 0 (323.0)
|   |   next1 = f: 0 (0.0)
|   |   next1 = g: 0 (0.0)
|   |   next1 = h: 0 (22.0)
|   |   next1 = i: 0 (444.0)
|   |   next1 = j: 0 (0.0)
|   |   next1 = k: 0 (1.0)
|   |   next1 = l: 0 (54.0)
|   |   next1 = m: 0 (0.0)
|   |   next1 = n: 0 (60.0)
|   |   next1 = o
|   |   |   next2 = a: 0 (1.0)
|   |   |   next2 = b: 0 (0.0)
|   |   |   next2 = c: 0 (1.0)
|   |   |   next2 = d: 0 (0.0)
|   |   |   next2 = e: 5 (25.0)
|   |   |   next2 = f: 0 (0.0)
|   |   |   next2 = g: 0 (0.0)
|   |   |   next2 = h: 0 (0.0)
|   |   |   next2 = i: 0 (0.0)
|   |   |   next2 = j: 0 (0.0)
|   |   |   next2 = k: 0 (0.0)
|   |   |   next2 = l: 0 (9.0)
|   |   |   next2 = m: 0 (10.0)
|   |   |   next2 = n: 0 (162.0)
|   |   |   next2 = o: 0 (0.0)
|   |   |   next2 = p: 0 (0.0)
|   |   |   next2 = q: 0 (0.0)
|   |   |   next2 = r: 0 (17.0)
|   |   |   next2 = s: 0 (24.0/1.0)
|   |   |   next2 = t: 0 (0.0)
|   |   |   next2 = u: 5 (20.0)
|   |   |   next2 = v: 0 (0.0)
|   |   |   next2 = w: 0 (0.0)
|   |   |   next2 = x: 0 (0.0)
|   |   |   next2 = y: 0 (0.0)
|   |   |   next2 = z: 0 (0.0)
|   |   |   next2 = 0: 0 (0.0)
|   |   |   next2 = 1: 0 (0.0)
|   |   |   next2 = 2: 0 (0.0)
|   |   |   next2 = 3: 0 (0.0)
|   |   |   next2 = 4: 0 (0.0)
|   |   |   next2 = 5: 0 (0.0)
|   |   |   next2 = 6: 0 (0.0)
|   |   |   next2 = 7: 0 (0.0)
|   |   |   next2 = 8: 0 (0.0)
|   |   |   next2 = 9: 0 (0.0)
|   |   |   next2 = SPACE: 5 (13.0/3.0)
|   |   |   next2 = PERIOD: 0 (1.0)
|   |   |   next2 = COMMA: 0 (2.0)
|   |   |   next2 = OTHER: 0 (6.0)
|   |   |   next2 = BOS: 0 (0.0)
|   |   |   next2 = EOS: 0 (0.0)
|   |   next1 = p: 0 (0.0)
|   |   next1 = q: 0 (0.0)
|   |   next1 = r: 0 (21.0)
|   |   next1 = s: 0 (0.0)
|   |   next1 = t: 0 (97.0)
|   |   next1 = u: 0 (272.0)
|   |   next1 = v: 0 (0.0)
|   |   next1 = w: 0 (0.0)
|   |   next1 = x: 0 (0.0)
|   |   next1 = y: 0 (0.0)
|   |   next1 = z: 0 (0.0)
|   |   next1 = 0: 0 (0.0)
|   |   next1 = 1: 0 (0.0)
|   |   next1 = 2: 0 (0.0)
|   |   next1 = 3: 0 (0.0)
|   |   next1 = 4: 0 (0.0)
|   |   next1 = 5: 0 (0.0)
|   |   next1 = 6: 0 (0.0)
|   |   next1 = 7: 0 (0.0)
|   |   next1 = 8: 0 (0.0)
|   |   next1 = 9: 0 (0.0)
|   |   next1 = SPACE: 0 (1.0)
|   |   next1 = PERIOD: 0 (3.0)
|   |   next1 = COMMA: 0 (2.0)
|   |   next1 = OTHER: 6 (3.0/1.0)
|   |   next1 = BOS: 0 (0.0)
|   |   next1 = EOS: 0 (0.0)
|   letter = d: 0 (800.0/2.0)
|   letter = e: 0 (56.0/2.0)
|   letter = f: 0 (371.0)
|   letter = g: 0 (1018.0)
|   letter = h: 0 (4.0)
|   letter = i: 0 (1852.0/11.0)
|   letter = j: 0 (158.0)
|   letter = k: 0 (12.0)
|   letter = l: 0 (2191.0)
|   letter = m: 0 (3985.0)
|   letter = n: 0 (6295.0)
|   letter = o
|   |   next3 = a: 0 (78.0/2.0)
|   |   next3 = b: 0 (1.0)
|   |   next3 = c
|   |   |   next2 = a: 2 (0.0)
|   |   |   next2 = b: 2 (0.0)
|   |   |   next2 = c: 2 (0.0)
|   |   |   next2 = d: 2 (0.0)
|   |   |   next2 = e: 2 (0.0)
|   |   |   next2 = f: 2 (0.0)
|   |   |   next2 = g: 2 (0.0)
|   |   |   next2 = h: 2 (0.0)
|   |   |   next2 = i: 2 (26.0/2.0)
|   |   |   next2 = j: 2 (0.0)
|   |   |   next2 = k: 2 (0.0)
|   |   |   next2 = l: 2 (0.0)
|   |   |   next2 = m: 2 (0.0)
|   |   |   next2 = n: 2 (0.0)
|   |   |   next2 = o: 2 (0.0)
|   |   |   next2 = p: 2 (0.0)
|   |   |   next2 = q: 2 (0.0)
|   |   |   next2 = r: 2 (0.0)
|   |   |   next2 = s: 2 (0.0)
|   |   |   next2 = t: 2 (0.0)
|   |   |   next2 = u: 2 (0.0)
|   |   |   next2 = v: 2 (0.0)
|   |   |   next2 = w: 2 (0.0)
|   |   |   next2 = x: 2 (0.0)
|   |   |   next2 = y: 2 (0.0)
|   |   |   next2 = z: 2 (0.0)
|   |   |   next2 = 0: 2 (0.0)
|   |   |   next2 = 1: 2 (0.0)
|   |   |   next2 = 2: 2 (0.0)
|   |   |   next2 = 3: 2 (0.0)
|   |   |   next2 = 4: 2 (0.0)
|   |   |   next2 = 5: 2 (0.0)
|   |   |   next2 = 6: 2 (0.0)
|   |   |   next2 = 7: 2 (0.0)
|   |   |   next2 = 8: 2 (0.0)
|   |   |   next2 = 9: 2 (0.0)
|   |   |   next2 = SPACE: 0 (4.0)
|   |   |   next2 = PERIOD: 2 (0.0)
|   |   |   next2 = COMMA: 2 (0.0)
|   |   |   next2 = OTHER: 2 (0.0)
|   |   |   next2 = BOS: 2 (0.0)
|   |   |   next2 = EOS: 2 (0.0)
|   |   next3 = d: 0 (4.0)
|   |   next3 = e: 0 (13.0)
|   |   next3 = f: 0 (0.0)
|   |   next3 = g: 0 (25.0/3.0)
|   |   next3 = h: 0 (0.0)
|   |   next3 = i: 0 (7.0/2.0)
|   |   next3 = j: 0 (0.0)
|   |   next3 = k: 0 (0.0)
|   |   next3 = l: 0 (9.0)
|   |   next3 = m: 0 (3.0)
|   |   next3 = n: 0 (3.0)
|   |   next3 = o: 0 (13.0/1.0)
|   |   next3 = p: 0 (15.0)
|   |   next3 = q: 0 (0.0)
|   |   next3 = r: 0 (2.0)
|   |   next3 = s: 0 (5.0)
|   |   next3 = t: 0 (20.0)
|   |   next3 = u: 0 (5.0)
|   |   next3 = v: 0 (0.0)
|   |   next3 = w: 0 (0.0)
|   |   next3 = x: 0 (0.0)
|   |   next3 = y: 0 (0.0)
|   |   next3 = z
|   |   |   prev2 = a: 2 (0.0)
|   |   |   prev2 = b: 2 (0.0)
|   |   |   prev2 = c: 2 (0.0)
|   |   |   prev2 = d: 2 (0.0)
|   |   |   prev2 = e: 2 (0.0)
|   |   |   prev2 = f: 2 (0.0)
|   |   |   prev2 = g: 2 (0.0)
|   |   |   prev2 = h: 2 (0.0)
|   |   |   prev2 = i: 2 (0.0)
|   |   |   prev2 = j: 2 (0.0)
|   |   |   prev2 = k: 2 (0.0)
|   |   |   prev2 = l: 2 (4.0)
|   |   |   prev2 = m: 2 (0.0)
|   |   |   prev2 = n: 2 (0.0)
|   |   |   prev2 = o: 2 (0.0)
|   |   |   prev2 = p: 2 (0.0)
|   |   |   prev2 = q: 2 (0.0)
|   |   |   prev2 = r: 2 (0.0)
|   |   |   prev2 = s: 2 (0.0)
|   |   |   prev2 = t: 0 (3.0)
|   |   |   prev2 = u: 2 (0.0)
|   |   |   prev2 = v: 2 (0.0)
|   |   |   prev2 = w: 2 (0.0)
|   |   |   prev2 = x: 2 (0.0)
|   |   |   prev2 = y: 2 (0.0)
|   |   |   prev2 = z: 2 (0.0)
|   |   |   prev2 = 0: 2 (0.0)
|   |   |   prev2 = 1: 2 (0.0)
|   |   |   prev2 = 2: 2 (0.0)
|   |   |   prev2 = 3: 2 (0.0)
|   |   |   prev2 = 4: 2 (0.0)
|   |   |   prev2 = 5: 2 (0.0)
|   |   |   prev2 = 6: 2 (0.0)
|   |   |   prev2 = 7: 2 (0.0)
|   |   |   prev2 = 8: 2 (0.0)
|   |   |   prev2 = 9: 2 (0.0)
|   |   |   prev2 = SPACE: 2 (0.0)
|   |   |   prev2 = PERIOD: 2 (0.0)
|   |   |   prev2 = COMMA: 2 (0.0)
|   |   |   prev2 = OTHER: 2 (0.0)
|   |   |   prev2 = BOS: 2 (0.0)
|   |   |   prev2 = EOS: 2 (0.0)
|   |   next3 = 0: 0 (0.0)
|   |   next3 = 1: 0 (0.0)
|   |   next3 = 2: 0 (0.0)
|   |   next3 = 3: 0 (0.0)
|   |   next3 = 4: 0 (0.0)
|   |   next3 = 5: 0 (0.0)
|   |   next3 = 6: 0 (0.0)
|   |   next3 = 7: 0 (0.0)
|   |   next3 = 8: 0 (0.0)
|   |   next3 = 9: 0 (0.0)
|   |   next3 = SPACE: 0 (13.0)
|   |   next3 = PERIOD: 4 (1.0)
|   |   next3 = COMMA: 0 (0.0)
|   |   next3 = OTHER: 0 (1.0)
|   |   next3 = BOS: 0 (0.0)
|   |   next3 = EOS: 0 (0.0)
|   letter = p: 0 (423.0/4.0)
|   letter = q: 0 (238.0)
|   letter = r: 0 (5640.0)
|   letter = s: 0 (7425.0/8.0)
|   letter = t: 0 (1101.0/1.0)
|   letter = u: 0 (861.0/12.0)
|   letter = v: 0 (749.0)
|   letter = w: 0 (8.0)
|   letter = x: 0 (713.0/1.0)
|   letter = y: 0 (12.0)
|   letter = z: 0 (262.0)
|   letter = 0: 0 (0.0)
|   letter = 1: 0 (0.0)
|   letter = 2: 0 (1.0)
|   letter = 3: 0 (0.0)
|   letter = 4: 0 (0.0)
|   letter = 5: 0 (0.0)
|   letter = 6: 0 (0.0)
|   letter = 7: 0 (0.0)
|   letter = 8: 0 (0.0)
|   letter = 9: 0 (0.0)
|   letter = SPACE: 0 (14423.0)
|   letter = PERIOD: 0 (199.0)
|   letter = COMMA: 0 (637.0)
|   letter = OTHER: 0 (208.0)
|   letter = BOS: 0 (0.0)
|   letter = EOS: 0 (0.0)
prev1 = f
|   next2 = a: 0 (869.0/9.0)
|   next2 = b: 0 (7.0)
|   next2 = c: 0 (241.0/3.0)
|   next2 = d: 0 (164.0)
|   next2 = e: 0 (441.0/12.0)
|   next2 = f: 0 (7.0)
|   next2 = g: 0 (36.0/1.0)
|   next2 = h: 0 (91.0)
|   next2 = i
|   |   next3 = a: 0 (110.0/6.0)
|   |   next3 = b: 0 (0.0)
|   |   next3 = c
|   |   |   next1 = a: 2 (0.0)
|   |   |   next1 = b: 2 (0.0)
|   |   |   next1 = c: 2 (0.0)
|   |   |   next1 = d: 2 (0.0)
|   |   |   next1 = e: 2 (0.0)
|   |   |   next1 = f: 2 (0.0)
|   |   |   next1 = g: 2 (0.0)
|   |   |   next1 = h: 2 (0.0)
|   |   |   next1 = i: 2 (0.0)
|   |   |   next1 = j: 2 (0.0)
|   |   |   next1 = k: 2 (0.0)
|   |   |   next1 = l: 0 (2.0)
|   |   |   next1 = m: 2 (0.0)
|   |   |   next1 = n: 0 (8.0/1.0)
|   |   |   next1 = o: 2 (0.0)
|   |   |   next1 = p: 2 (0.0)
|   |   |   next1 = q: 2 (0.0)
|   |   |   next1 = r: 2 (12.0)
|   |   |   next1 = s: 2 (61.0)
|   |   |   next1 = t: 0 (1.0)
|   |   |   next1 = u: 2 (0.0)
|   |   |   next1 = v: 2 (0.0)
|   |   |   next1 = w: 2 (0.0)
|   |   |   next1 = x: 2 (0.0)
|   |   |   next1 = y: 2 (0.0)
|   |   |   next1 = z: 2 (0.0)
|   |   |   next1 = 0: 2 (0.0)
|   |   |   next1 = 1: 2 (0.0)
|   |   |   next1 = 2: 2 (0.0)
|   |   |   next1 = 3: 2 (0.0)
|   |   |   next1 = 4: 2 (0.0)
|   |   |   next1 = 5: 2 (0.0)
|   |   |   next1 = 6: 2 (0.0)
|   |   |   next1 = 7: 2 (0.0)
|   |   |   next1 = 8: 2 (0.0)
|   |   |   next1 = 9: 2 (0.0)
|   |   |   next1 = SPACE: 2 (0.0)
|   |   |   next1 = PERIOD: 2 (0.0)
|   |   |   next1 = COMMA: 2 (0.0)
|   |   |   next1 = OTHER: 2 (0.0)
|   |   |   next1 = BOS: 2 (0.0)
|   |   |   next1 = EOS: 2 (0.0)
|   |   next3 = d: 0 (40.0/2.0)
|   |   next3 = e
|   |   |   prev2 = a: 0 (0.0)
|   |   |   prev2 = b: 0 (0.0)
|   |   |   prev2 = c: 0 (0.0)
|   |   |   prev2 = d: 0 (0.0)
|   |   |   prev2 = e: 0 (14.0)
|   |   |   prev2 = f: 0 (0.0)
|   |   |   prev2 = g: 0 (0.0)
|   |   |   prev2 = h: 0 (0.0)
|   |   |   prev2 = i: 0 (0.0)
|   |   |   prev2 = j: 0 (0.0)
|   |   |   prev2 = k: 0 (0.0)
|   |   |   prev2 = l: 0 (0.0)
|   |   |   prev2 = m: 0 (0.0)
|   |   |   prev2 = n: 0 (0.0)
|   |   |   prev2 = o: 0 (1.0)
|   |   |   prev2 = p: 0 (0.0)
|   |   |   prev2 = q: 0 (0.0)
|   |   |   prev2 = r: 2 (22.0)
|   |   |   prev2 = s: 0 (0.0)
|   |   |   prev2 = t: 0 (0.0)
|   |   |   prev2 = u: 0 (14.0)
|   |   |   prev2 = v: 0 (0.0)
|   |   |   prev2 = w: 0 (0.0)
|   |   |   prev2 = x: 0 (0.0)
|   |   |   prev2 = y: 0 (0.0)
|   |   |   prev2 = z: 0 (0.0)
|   |   |   prev2 = 0: 0 (0.0)
|   |   |   prev2 = 1: 0 (0.0)
|   |   |   prev2 = 2: 0 (0.0)
|   |   |   prev2 = 3: 0 (0.0)
|   |   |   prev2 = 4: 0 (0.0)
|   |   |   prev2 = 5: 0 (0.0)
|   |   |   prev2 = 6: 0 (0.0)
|   |   |   prev2 = 7: 0 (0.0)
|   |   |   prev2 = 8: 0 (0.0)
|   |   |   prev2 = 9: 0 (0.0)
|   |   |   prev2 = SPACE: 0 (0.0)
|   |   |   prev2 = PERIOD: 0 (0.0)
|   |   |   prev2 = COMMA: 0 (0.0)
|   |   |   prev2 = OTHER: 0 (0.0)
|   |   |   prev2 = BOS: 0 (0.0)
|   |   |   prev2 = EOS: 0 (0.0)
|   |   next3 = f: 0 (0.0)
|   |   next3 = g: 0 (0.0)
|   |   next3 = h: 0 (0.0)
|   |   next3 = i: 0 (0.0)
|   |   next3 = j: 0 (0.0)
|   |   next3 = k: 0 (0.0)
|   |   next3 = l
|   |   |   prev3 = a: 0 (16.0)
|   |   |   prev3 = b: 0 (0.0)
|   |   |   prev3 = c: 0 (0.0)
|   |   |   prev3 = d: 2 (10.0)
|   |   |   prev3 = e: 0 (7.0/1.0)
|   |   |   prev3 = f: 0 (0.0)
|   |   |   prev3 = g: 0 (0.0)
|   |   |   prev3 = h: 0 (0.0)
|   |   |   prev3 = i: 0 (0.0)
|   |   |   prev3 = j: 0 (0.0)
|   |   |   prev3 = k: 0 (0.0)
|   |   |   prev3 = l: 0 (0.0)
|   |   |   prev3 = m: 0 (2.0)
|   |   |   prev3 = n: 0 (0.0)
|   |   |   prev3 = o: 2 (2.0)
|   |   |   prev3 = p: 0 (0.0)
|   |   |   prev3 = q: 0 (0.0)
|   |   |   prev3 = r: 0 (3.0)
|   |   |   prev3 = s
|   |   |   |   next1 = a: 0 (0.0)
|   |   |   |   next1 = b: 0 (0.0)
|   |   |   |   next1 = c: 2 (2.0)
|   |   |   |   next1 = d: 0 (0.0)
|   |   |   |   next1 = e: 0 (0.0)
|   |   |   |   next1 = f: 0 (0.0)
|   |   |   |   next1 = g: 0 (0.0)
|   |   |   |   next1 = h: 0 (0.0)
|   |   |   |   next1 = i: 0 (0.0)
|   |   |   |   next1 = j: 0 (0.0)
|   |   |   |   next1 = k: 0 (0.0)
|   |   |   |   next1 = l: 0 (0.0)
|   |   |   |   next1 = m: 0 (3.0)
|   |   |   |   next1 = n: 0 (0.0)
|   |   |   |   next1 = o: 0 (0.0)
|   |   |   |   next1 = p: 0 (0.0)
|   |   |   |   next1 = q: 0 (0.0)
|   |   |   |   next1 = r: 0 (0.0)
|   |   |   |   next1 = s: 0 (0.0)
|   |   |   |   next1 = t: 0 (0.0)
|   |   |   |   next1 = u: 0 (0.0)
|   |   |   |   next1 = v: 0 (0.0)
|   |   |   |   next1 = w: 0 (0.0)
|   |   |   |   next1 = x: 0 (0.0)
|   |   |   |   next1 = y: 0 (0.0)
|   |   |   |   next1 = z: 0 (0.0)
|   |   |   |   next1 = 0: 0 (0.0)
|   |   |   |   next1 = 1: 0 (0.0)
|   |   |   |   next1 = 2: 0 (0.0)
|   |   |   |   next1 = 3: 0 (0.0)
|   |   |   |   next1 = 4: 0 (0.0)
|   |   |   |   next1 = 5: 0 (0.0)
|   |   |   |   next1 = 6: 0 (0.0)
|   |   |   |   next1 = 7: 0 (0.0)
|   |   |   |   next1 = 8: 0 (0.0)
|   |   |   |   next1 = 9: 0 (0.0)
|   |   |   |   next1 = SPACE: 0 (0.0)
|   |   |   |   next1 = PERIOD: 0 (0.0)
|   |   |   |   next1 = COMMA: 0 (0.0)
|   |   |   |   next1 = OTHER: 0 (0.0)
|   |   |   |   next1 = BOS: 0 (0.0)
|   |   |   |   next1 = EOS: 0 (0.0)
|   |   |   prev3 = t: 0 (0.0)
|   |   |   prev3 = u: 0 (2.0/1.0)
|   |   |   prev3 = v: 0 (0.0)
|   |   |   prev3 = w: 0 (0.0)
|   |   |   prev3 = x: 0 (0.0)
|   |   |   prev3 = y: 0 (0.0)
|   |   |   prev3 = z: 0 (0.0)
|   |   |   prev3 = 0: 0 (0.0)
|   |   |   prev3 = 1: 0 (0.0)
|   |   |   prev3 = 2: 0 (0.0)
|   |   |   prev3 = 3: 0 (0.0)
|   |   |   prev3 = 4: 0 (0.0)
|   |   |   prev3 = 5: 0 (0.0)
|   |   |   prev3 = 6: 0 (0.0)
|   |   |   prev3 = 7: 0 (0.0)
|   |   |   prev3 = 8: 0 (0.0)
|   |   |   prev3 = 9: 0 (0.0)
|   |   |   prev3 = SPACE: 0 (0.0)
|   |   |   prev3 = PERIOD: 0 (0.0)
|   |   |   prev3 = COMMA: 0 (0.0)
|   |   |   prev3 = OTHER: 0 (0.0)
|   |   |   prev3 = BOS: 0 (0.0)
|   |   |   prev3 = EOS: 0 (0.0)
|   |   next3 = m: 0 (3.0)
|   |   next3 = n: 0 (24.0)
|   |   next3 = o
|   |   |   prev2 = a: 2 (0.0)
|   |   |   prev2 = b: 2 (0.0)
|   |   |   prev2 = c: 2 (0.0)
|   |   |   prev2 = d: 2 (0.0)
|   |   |   prev2 = e
|   |   |   |   prev3 = a: 2 (0.0)
|   |   |   |   prev3 = b: 2 (0.0)
|   |   |   |   prev3 = c: 2 (0.0)
|   |   |   |   prev3 = d: 2 (0.0)
|   |   |   |   prev3 = e: 2 (0.0)
|   |   |   |   prev3 = f: 2 (0.0)
|   |   |   |   prev3 = g: 2 (0.0)
|   |   |   |   prev3 = h: 2 (0.0)
|   |   |   |   prev3 = i: 2 (0.0)
|   |   |   |   prev3 = j: 2 (0.0)
|   |   |   |   prev3 = k: 2 (0.0)
|   |   |   |   prev3 = l: 2 (0.0)
|   |   |   |   prev3 = m: 2 (0.0)
|   |   |   |   prev3 = n: 2 (6.0)
|   |   |   |   prev3 = o: 2 (0.0)
|   |   |   |   prev3 = p: 2 (0.0)
|   |   |   |   prev3 = q: 2 (0.0)
|   |   |   |   prev3 = r: 0 (3.0/1.0)
|   |   |   |   prev3 = s: 2 (0.0)
|   |   |   |   prev3 = t: 2 (0.0)
|   |   |   |   prev3 = u: 2 (0.0)
|   |   |   |   prev3 = v: 2 (0.0)
|   |   |   |   prev3 = w: 2 (0.0)
|   |   |   |   prev3 = x: 2 (0.0)
|   |   |   |   prev3 = y: 2 (0.0)
|   |   |   |   prev3 = z: 2 (0.0)
|   |   |   |   prev3 = 0: 2 (0.0)
|   |   |   |   prev3 = 1: 2 (0.0)
|   |   |   |   prev3 = 2: 2 (0.0)
|   |   |   |   prev3 = 3: 2 (0.0)
|   |   |   |   prev3 = 4: 2 (0.0)
|   |   |   |   prev3 = 5: 2 (0.0)
|   |   |   |   prev3 = 6: 2 (0.0)
|   |   |   |   prev3 = 7: 2 (0.0)
|   |   |   |   prev3 = 8: 2 (0.0)
|   |   |   |   prev3 = 9: 2 (0.0)
|   |   |   |   prev3 = SPACE: 2 (0.0)
|   |   |   |   prev3 = PERIOD: 2 (0.0)
|   |   |   |   prev3 = COMMA: 2 (0.0)
|   |   |   |   prev3 = OTHER: 2 (0.0)
|   |   |   |   prev3 = BOS: 2 (0.0)
|   |   |   |   prev3 = EOS: 2 (0.0)
|   |   |   prev2 = f: 2 (0.0)
|   |   |   prev2 = g: 2 (0.0)
|   |   |   prev2 = h: 2 (0.0)
|   |   |   prev2 = i: 2 (13.0/1.0)
|   |   |   prev2 = j: 2 (0.0)
|   |   |   prev2 = k: 2 (0.0)
|   |   |   prev2 = l: 2 (0.0)
|   |   |   prev2 = m: 2 (0.0)
|   |   |   prev2 = n: 0 (7.0/1.0)
|   |   |   prev2 = o: 2 (0.0)
|   |   |   prev2 = p: 2 (0.0)
|   |   |   prev2 = q: 2 (0.0)
|   |   |   prev2 = r: 2 (0.0)
|   |   |   prev2 = s: 2 (23.0)
|   |   |   prev2 = t: 2 (0.0)
|   |   |   prev2 = u: 2 (0.0)
|   |   |   prev2 = v: 2 (0.0)
|   |   |   prev2 = w: 2 (0.0)
|   |   |   prev2 = x: 2 (0.0)
|   |   |   prev2 = y: 2 (0.0)
|   |   |   prev2 = z: 2 (0.0)
|   |   |   prev2 = 0: 2 (0.0)
|   |   |   prev2 = 1: 2 (0.0)
|   |   |   prev2 = 2: 2 (0.0)
|   |   |   prev2 = 3: 2 (0.0)
|   |   |   prev2 = 4: 2 (0.0)
|   |   |   prev2 = 5: 2 (0.0)
|   |   |   prev2 = 6: 2 (0.0)
|   |   |   prev2 = 7: 2 (0.0)
|   |   |   prev2 = 8: 2 (0.0)
|   |   |   prev2 = 9: 2 (0.0)
|   |   |   prev2 = SPACE: 0 (3.0)
|   |   |   prev2 = PERIOD: 0 (1.0)
|   |   |   prev2 = COMMA: 2 (0.0)
|   |   |   prev2 = OTHER: 2 (0.0)
|   |   |   prev2 = BOS: 2 (0.0)
|   |   |   prev2 = EOS: 2 (0.0)
|   |   next3 = p: 0 (1.0)
|   |   next3 = q: 0 (0.0)
|   |   next3 = r: 0 (25.0)
|   |   next3 = s: 0 (3.0)
|   |   next3 = t: 0 (20.0)
|   |   next3 = u: 0 (7.0)
|   |   next3 = v: 0 (12.0)
|   |   next3 = w: 0 (0.0)
|   |   next3 = x: 2 (2.0)
|   |   next3 = y: 0 (0.0)
|   |   next3 = z: 0 (9.0)
|   |   next3 = 0: 0 (0.0)
|   |   next3 = 1: 0 (0.0)
|   |   next3 = 2: 0 (0.0)
|   |   next3 = 3: 0 (0.0)
|   |   next3 = 4: 0 (0.0)
|   |   next3 = 5: 0 (0.0)
|   |   next3 = 6: 0 (0.0)
|   |   next3 = 7: 0 (0.0)
|   |   next3 = 8: 0 (0.0)
|   |   next3 = 9: 0 (0.0)
|   |   next3 = SPACE: 0 (1.0)
|   |   next3 = PERIOD: 0 (0.0)
|   |   next3 = COMMA: 0 (0.0)
|   |   next3 = OTHER: 0 (0.0)
|   |   next3 = BOS: 0 (0.0)
|   |   next3 = EOS: 0 (0.0)
|   next2 = j: 0 (21.0/1.0)
|   next2 = k: 0 (3.0)
|   next2 = l: 0 (11.0/1.0)
|   next2 = m: 0 (330.0/1.0)
|   next2 = n: 0 (168.0/3.0)
|   next2 = o: 0 (279.0/6.0)
|   next2 = p: 0 (9.0)
|   next2 = q: 0 (41.0)
|   next2 = r: 0 (94.0/3.0)
|   next2 = s: 0 (130.0/7.0)
|   next2 = t: 0 (415.0/5.0)
|   next2 = u: 0 (86.0/3.0)
|   next2 = v: 0 (32.0/2.0)
|   next2 = w: 0 (0.0)
|   next2 = x: 0 (28.0)
|   next2 = y: 0 (0.0)
|   next2 = z: 0 (0.0)
|   next2 = 0: 0 (0.0)
|   next2 = 1: 0 (0.0)
|   next2 = 2: 0 (0.0)
|   next2 = 3: 0 (0.0)
|   next2 = 4: 0 (0.0)
|   next2 = 5: 0 (0.0)
|   next2 = 6: 0 (0.0)
|   next2 = 7: 0 (0.0)
|   next2 = 8: 0 (0.0)
|   next2 = 9: 0 (0.0)
|   next2 = SPACE: 0 (542.0/9.0)
|   next2 = PERIOD: 0 (4.0)
|   next2 = COMMA: 0 (18.0/1.0)
|   next2 = OTHER: 0 (13.0/1.0)
|   next2 = BOS: 0 (0.0)
|   next2 = EOS: 0 (0.0)
prev1 = g
|   next1 = a: 0 (936.0)
|   next1 = b: 0 (5.0/1.0)
|   next1 = c
|   |   letter = a: 0 (46.0)
|   |   letter = b: 0 (0.0)
|   |   letter = c: 0 (0.0)
|   |   letter = d: 0 (0.0)
|   |   letter = e: 0 (0.0)
|   |   letter = f: 0 (0.0)
|   |   letter = g: 0 (0.0)
|   |   letter = h: 0 (0.0)
|   |   letter = i: 0 (70.0)
|   |   letter = j: 0 (0.0)
|   |   letter = k: 0 (0.0)
|   |   letter = l: 0 (0.0)
|   |   letter = m: 0 (0.0)
|   |   letter = n: 0 (0.0)
|   |   letter = o
|   |   |   next3 = a: 0 (8.0)
|   |   |   next3 = b: 0 (0.0)
|   |   |   next3 = c: 0 (0.0)
|   |   |   next3 = d: 0 (0.0)
|   |   |   next3 = e: 0 (0.0)
|   |   |   next3 = f: 0 (0.0)
|   |   |   next3 = g: 0 (0.0)
|   |   |   next3 = h: 0 (0.0)
|   |   |   next3 = i: 0 (0.0)
|   |   |   next3 = j: 0 (0.0)
|   |   |   next3 = k: 0 (0.0)
|   |   |   next3 = l: 0 (0.0)
|   |   |   next3 = m: 0 (0.0)
|   |   |   next3 = n: 0 (0.0)
|   |   |   next3 = o: 2 (7.0/1.0)
|   |   |   next3 = p: 0 (0.0)
|   |   |   next3 = q: 0 (0.0)
|   |   |   next3 = r: 0 (0.0)
|   |   |   next3 = s: 0 (0.0)
|   |   |   next3 = t: 0 (0.0)
|   |   |   next3 = u: 0 (0.0)
|   |   |   next3 = v: 0 (0.0)
|   |   |   next3 = w: 0 (0.0)
|   |   |   next3 = x: 0 (0.0)
|   |   |   next3 = y: 0 (0.0)
|   |   |   next3 = z: 0 (0.0)
|   |   |   next3 = 0: 0 (0.0)
|   |   |   next3 = 1: 0 (0.0)
|   |   |   next3 = 2: 0 (0.0)
|   |   |   next3 = 3: 0 (0.0)
|   |   |   next3 = 4: 0 (0.0)
|   |   |   next3 = 5: 0 (0.0)
|   |   |   next3 = 6: 0 (0.0)
|   |   |   next3 = 7: 0 (0.0)
|   |   |   next3 = 8: 0 (0.0)
|   |   |   next3 = 9: 0 (0.0)
|   |   |   next3 = SPACE: 0 (0.0)
|   |   |   next3 = PERIOD: 0 (0.0)
|   |   |   next3 = COMMA: 0 (0.0)
|   |   |   next3 = OTHER: 0 (0.0)
|   |   |   next3 = BOS: 0 (0.0)
|   |   |   next3 = EOS: 0 (0.0)
|   |   letter = p: 0 (0.0)
|   |   letter = q: 0 (0.0)
|   |   letter = r: 0 (0.0)
|   |   letter = s: 0 (0.0)
|   |   letter = t: 0 (0.0)
|   |   letter = u: 0 (0.0)
|   |   letter = v: 0 (0.0)
|   |   letter = w: 0 (0.0)
|   |   letter = x: 0 (0.0)
|   |   letter = y: 0 (0.0)
|   |   letter = z: 0 (0.0)
|   |   letter = 0: 0 (0.0)
|   |   letter = 1: 0 (0.0)
|   |   letter = 2: 0 (0.0)
|   |   letter = 3: 0 (0.0)
|   |   letter = 4: 0 (0.0)
|   |   letter = 5: 0 (0.0)
|   |   letter = 6: 0 (0.0)
|   |   letter = 7: 0 (0.0)
|   |   letter = 8: 0 (0.0)
|   |   letter = 9: 0 (0.0)
|   |   letter = SPACE: 0 (1.0)
|   |   letter = PERIOD: 0 (0.0)
|   |   letter = COMMA: 0 (0.0)
|   |   letter = OTHER: 0 (0.0)
|   |   letter = BOS: 0 (0.0)
|   |   letter = EOS: 0 (0.0)
|   next1 = d: 0 (139.0/3.0)
|   next1 = e: 0 (467.0)
|   next1 = f: 0 (2.0)
|   next1 = g: 0 (16.0/2.0)
|   next1 = h: 0 (0.0)
|   next1 = i: 0 (307.0/2.0)
|   next1 = j: 0 (0.0)
|   next1 = k: 0 (3.0)
|   next1 = l: 0 (275.0/6.0)
|   next1 = m: 0 (329.0/2.0)
|   next1 = n
|   |   next2 = a: 0 (80.0)
|   |   next2 = b: 0 (0.0)
|   |   next2 = c
|   |   |   next3 = a: 0 (3.0)
|   |   |   next3 = b: 3 (0.0)
|   |   |   next3 = c: 3 (0.0)
|   |   |   next3 = d: 3 (0.0)
|   |   |   next3 = e: 0 (1.0)
|   |   |   next3 = f: 3 (0.0)
|   |   |   next3 = g: 3 (0.0)
|   |   |   next3 = h: 0 (1.0)
|   |   |   next3 = i: 3 (18.0)
|   |   |   next3 = j: 3 (0.0)
|   |   |   next3 = k: 3 (0.0)
|   |   |   next3 = l: 3 (0.0)
|   |   |   next3 = m: 3 (0.0)
|   |   |   next3 = n: 3 (0.0)
|   |   |   next3 = o: 3 (0.0)
|   |   |   next3 = p: 3 (0.0)
|   |   |   next3 = q: 3 (0.0)
|   |   |   next3 = r: 3 (0.0)
|   |   |   next3 = s: 3 (0.0)
|   |   |   next3 = t: 3 (0.0)
|   |   |   next3 = u: 3 (0.0)
|   |   |   next3 = v: 3 (0.0)
|   |   |   next3 = w: 3 (0.0)
|   |   |   next3 = x: 3 (0.0)
|   |   |   next3 = y: 0 (1.0)
|   |   |   next3 = z: 3 (0.0)
|   |   |   next3 = 0: 3 (0.0)
|   |   |   next3 = 1: 3 (0.0)
|   |   |   next3 = 2: 3 (0.0)
|   |   |   next3 = 3: 3 (0.0)
|   |   |   next3 = 4: 3 (0.0)
|   |   |   next3 = 5: 3 (0.0)
|   |   |   next3 = 6: 3 (0.0)
|   |   |   next3 = 7: 3 (0.0)
|   |   |   next3 = 8: 3 (0.0)
|   |   |   next3 = 9: 3 (0.0)
|   |   |   next3 = SPACE: 3 (0.0)
|   |   |   next3 = PERIOD: 3 (0.0)
|   |   |   next3 = COMMA: 3 (0.0)
|   |   |   next3 = OTHER: 3 (0.0)
|   |   |   next3 = BOS: 3 (0.0)
|   |   |   next3 = EOS: 3 (0.0)
|   |   next2 = d: 0 (141.0)
|   |   next2 = e: 0 (58.0/16.0)
|   |   next2 = f: 0 (0.0)
|   |   next2 = g: 0 (5.0)
|   |   next2 = h: 0 (27.0)
|   |   next2 = i
|   |   |   next3 = a
|   |   |   |   prev3 = a: 3 (0.0)
|   |   |   |   prev3 = b: 3 (0.0)
|   |   |   |   prev3 = c: 3 (0.0)
|   |   |   |   prev3 = d: 3 (0.0)
|   |   |   |   prev3 = e: 3 (0.0)
|   |   |   |   prev3 = f: 2 (4.0/1.0)
|   |   |   |   prev3 = g: 3 (0.0)
|   |   |   |   prev3 = h: 3 (0.0)
|   |   |   |   prev3 = i: 3 (0.0)
|   |   |   |   prev3 = j: 3 (0.0)
|   |   |   |   prev3 = k: 3 (0.0)
|   |   |   |   prev3 = l: 3 (0.0)
|   |   |   |   prev3 = m: 0 (1.0)
|   |   |   |   prev3 = n: 3 (0.0)
|   |   |   |   prev3 = o: 3 (0.0)
|   |   |   |   prev3 = p: 3 (0.0)
